198 100
the 0.018118966 0.019970227 0.016190257 -0.03524836 -0.0033126697 -0.016183235 0.040323842 -0.029819716 0.04379945 -0.00090414286 0.0045520663 -0.016112126 0.04287919 -0.010825492 0.03381933 0.03020874 -0.03685963 -0.0058574304 0.013511982 -0.044775333 -0.00023610517 -0.048181295 -0.0053977 0.023310486 0.0022323616 -0.01730708 -0.034543682 0.024980132 0.026496995 -0.039030194 0.033379618 0.040960263 0.020848047 -0.03752308 -0.008029796 -0.015462182 -0.038471878 -0.04205563 0.03613219 0.04332049 -0.0053580515 0.001837112 -0.029322708 -0.0073751435 -0.0009950511 -0.03129059 0.014831591 0.031091008 0.018425774 0.042394068 0.004666649 -0.035123456 -0.020138646 0.030461181 -0.02173239 -0.021756863 0.025887046 0.049505364 -0.025741804 -0.0028329864 0.029471766 -0.0073405392 -0.017662369 -0.028673565 -0.01411283 0.027270284 -0.013426721 0.03732009 -0.04202447 0.003805507 -0.032892063 0.03801957 0.045665253 -0.0382993 -0.020412123 -0.0058801174 0.035190236 0.00760014 0.044634048 0.021963958 -0.04293419 -0.026794171 0.014583115 0.019932974 0.047668826 -0.0045327544 -0.0268808 -0.043655064 -0.041035354 0.018107902 0.03759173 -0.03296435 -0.023416376 -0.02912885 0.014439236 -0.048644222 0.039387714 0.014922988 -0.009772696 0.04642136
of 0.010778379 -0.019771028 0.022784915 0.008927047 0.028243508 0.0057706833 -0.01838746 0.043132905 -0.021071732 -0.022297693 -0.040001273 -0.029128635 0.044295643 0.049750034 0.0067318194 -0.002986826 0.027999613 0.022155587 -0.032377947 0.04940817 0.037928406 -0.049701214 -0.007235147 -0.02462002 0.016709078 -0.007652987 0.006950356 0.031913865 0.018436205 -0.027600145 0.04193263 -0.017077696 0.0021120086 0.02549417 0.034441058 0.04924302 -0.00682088 0.0117014535 -0.001895152 -0.04388957 0.040375005 -0.04184874 -0.028508056 0.0059238076 -0.009134866 0.034025874 0.026330326 -0.037814487 0.003682971 0.042108726 -0.04084126 0.0011760369 -0.025432205 -0.018058907 -0.023791468 0.04489856 -0.0051143654 -0.00073492527 0.042316142 -0.005802989 -0.028526759 -0.007633604 0.04608584 0.022435103 -0.006330192 -0.015693523 0.02402151 -0.03692627 0.0086166635 0.02604789 0.041280378 0.044395212 -0.042906847 0.036952104 -0.009599708 0.0047796257 0.043096457 -0.012091719 -0.019494688 -0.03846432 0.016363885 -0.0055808797 -0.033914283 -0.021543551 -0.001098834 0.022376541 0.021411452 0.020061705 0.0400987 0.017016497 0.035021607 -0.015170027 0.03154627 0.001835145 0.029990826 0.02593476 0.016698446 0.04202405 0.032512497 -0.042180456
influenza -0.0024813414 0.04691166 0.028121796 0.017268468 -0.013844453 0.024692427 -0.035315536 0.008995604 0.0154196285 0.049588237 -0.025715364 0.036092494 0.039901827 -0.00080107525 0.045073662 -0.04170846 -0.034496903 0.035451863 0.014647793 -0.04960022 -0.033658758 0.018479217 0.012847755 0.011670053 -0.029000545 0.0006595254 -0.010516562 0.009667348 0.033075605 0.03283043 0.02842616 0.02748904 -0.03845092 -0.019914305 -0.024873817 0.015297424 -0.03663981 0.026160073 -0.025660217 -0.024737298 0.023328234 -0.020454193 0.04584295 -0.004157126 0.023484375 -0.025127267 0.003855586 -0.03633814 -0.0030415542 -0.038529683 -0.018890655 0.04342724 -0.045324873 0.017230283 -0.018558133 -0.041887544 -0.013948489 -0.046870437 -0.005194545 -0.023419702 0.023160446 -0.026784444 0.04570302 -0.039892673 -0.026488913 -0.0282431 0.018756997 0.019274604 0.017814588 -0.036323808 0.04233836 0.009761859 0.024378542 -0.013917625 -0.042040087 0.017065715 -0.0034735687 -0.0024623051 -0.024995184 0.039857414 -0.037156116 -0.04041599 -0.041529346 0.0411322 -0.0076079257 -0.04081186 -0.025964022 -0.007540632 0.022951592 -0.046216644 0.048425484 0.0067764893 -0.018229939 -0.025875939 -0.04740162 -0.017783977 -0.0010164864 -0.027430488 0.016607437 -0.0067768097
covid -0.02485608 -0.035060298 -0.009780683 0.038394604 -0.04735608 -0.029215872 -0.006669022 0.00727142 0.03591379 0.03065728 0.014784444 0.049255837 -0.010947287 0.028417516 0.0008727908 -0.016562223 -0.008781172 0.045854535 -0.03948734 -0.03712245 -0.032427896 -0.033948638 -0.0447873 0.008551776 0.038339797 0.025114063 -0.041781306 -0.040510617 -0.039263405 -0.019266998 -0.0011606812 0.027188074 -0.0021522269 0.04331087 0.025431465 0.01403543 0.014049862 -0.011433829 -0.02283231 -0.0054595955 -0.043148935 -0.0059923753 -0.013038516 -0.03725208 -0.035477065 -0.034448326 -0.019045532 0.03683609 0.029681016 0.0014366284 0.009225249 -0.013621628 0.044141326 0.006601177 0.0065049306 0.027112294 -0.021401584 -0.034379564 -0.044820752 -0.049129166 0.03277835 -0.035859667 0.03804255 -0.0015964136 0.02311312 0.037855614 -0.041777145 -0.044893693 0.0068272576 -0.03280033 0.011445928 -0.039816737 0.045764696 0.02037454 0.022052411 -0.0004653558 0.04107258 -0.037581764 0.0016951188 0.020460617 -0.012239613 0.029849637 0.038282763 -0.044889987 0.0029762164 -0.014840819 0.006160129 0.034905706 -0.0053701177 0.04671235 -0.04483154 -0.011100449 0.017883647 0.03684323 -0.027682519 -0.04608673 -0.049672283 0.028373133 0.025813852 0.03464332
19 -0.03916484 0.025078867 -0.027307892 0.031690743 0.046484638 -0.019766057 -0.016293086 0.03743266 0.03375527 -0.038439415 0.008193146 -0.035848893 -0.013104808 0.022282828 0.00095840544 -0.028929198 -0.023606276 0.015121434 -0.028551137 0.04458103 0.007469941 0.025069702 0.0023351684 0.011710476 -0.01267755 0.0049201846 0.020834949 -0.047270335 -0.039269544 -0.04962646 -0.049203325 0.035597596 -0.04173267 0.043559972 0.009803783 0.015292216 0.025382165 -0.04507301 0.0017717481 -0.02601601 0.03095546 0.01435839 -0.008784782 0.0103980675 -0.041743897 0.019881878 -0.017303001 0.045828033 0.001319278 -0.033815503 -0.041715942 -0.04696182 -0.038225554 -0.035636056 -0.027021622 0.02611592 0.036140356 0.009010695 0.026164021 -0.028124286 0.045087878 -0.042391945 0.01583388 -0.0017845258 -0.026483655 -0.039745413 0.03477366 0.0076317303 0.02805822 0.008845687 -0.0034491308 0.011522032 0.03480302 0.03227004 0.02737588 -0.024288988 -0.023887312 0.0393953 0.025616888 -0.021608401 -0.021846974 0.011524092 -0.017122734 -0.008556344 6.723404e-05 0.009058606 0.046544697 -0.018840278 0.044026483 0.027359713 -0.0029978864 -0.040353287 0.016729463 -0.047895372 0.010039151 -0.028997589 -0.036660086 0.031070959 -0.042161964 -0.026773011
virus -0.018537354 0.024261106 0.00718347 -0.018347107 0.030250315 0.04579785 0.00617864 -0.00859965 0.024985958 0.034585882 0.022379328 0.017420415 -0.028041327 -0.004471101 0.013148461 -0.017921746 0.0065104477 0.042759825 0.036354635 -0.02743882 0.02687538 0.042233918 -0.0042725205 0.0440001 0.0055194385 0.042268503 -0.046703827 -0.010572016 -0.020367717 0.0026759878 0.014346693 0.038099837 -0.04177197 -0.0200611 0.016276006 0.0030801669 0.042813983 -0.01081083 0.018223975 -0.0021931417 -0.048985314 -0.010011207 -0.040025245 -0.035014927 -0.030032981 0.02255397 0.0049639717 0.037604954 -0.027485406 0.024657097 0.032860134 0.030923273 0.03249005 0.03278173 -0.036675476 0.0021684058 -0.0013631955 -0.0015020594 0.00032744557 -0.008549847 0.037027154 0.03728875 -0.044953134 0.021675315 -0.04989027 -0.0054007545 -0.010846436 -0.031246161 0.03860562 0.031445216 -0.016663741 -0.015770067 -0.021891737 0.00727769 0.03237516 -0.031877674 -0.02754134 -0.048075568 0.040570665 -0.021852946 0.02398533 -0.043266356 0.016070832 0.044481162 0.017118167 0.009659253 -0.03253676 -0.037347414 -0.008414887 -0.0019430518 -0.00047729164 -0.030166209 -0.029638816 0.03431649 0.010020874 0.040050175 0.049582127 0.0050934926 0.025784459 0.01992556
for -0.013548054 0.0077803954 -0.034508836 -0.01377964 0.046173442 0.044658545 -0.007511474 0.0054286607 0.024077903 -0.0017573945 -0.02147193 0.011732675 -0.01045854 -0.002424717 0.02043743 0.007040072 0.04442102 -0.04327322 0.022494603 -0.0007383004 0.010889865 -0.038505554 0.048679713 -0.021614457 -0.039795112 0.020483468 0.020093445 0.049741123 -0.02876432 -0.04443263 -0.042759027 0.025839712 -0.0073915236 0.03238659 0.007899653 0.013952199 -0.018665265 0.023599792 0.003055632 -0.023348188 0.04644263 0.010423146 -0.015201725 -0.045260977 -0.004168283 0.035142962 0.017168771 -0.017417036 0.0045335665 -0.0072646514 0.046065632 0.038437497 0.019642446 -0.030612363 -0.014168583 -0.0014031641 -0.012796987 -0.013998758 0.0143416785 -0.015828133 0.027985502 -0.012941897 0.03952683 0.007620193 -0.011959933 0.04529648 0.018081818 -0.029992605 -0.03711195 0.02161355 -0.047335386 -0.044918835 0.011008598 0.015066925 -0.033836126 -0.02138318 -0.016266394 -0.049973335 0.026146654 0.01963428 -0.04023372 -0.030918395 -0.045261443 -0.006321501 -0.03748574 -0.019470919 -0.012434173 -0.004555665 0.019613814 0.034856502 -0.014959656 0.020533714 0.039447654 0.014406908 0.017238688 -0.017657198 0.007498525 -0.040011633 -0.04655088 0.04440589
transmission 0.01753192 -0.0142220035 0.03671347 -0.04669832 -0.01778569 0.030838516 0.01933309 0.005868327 -0.0011446849 -0.0028636828 0.023635995 -0.0021597967 0.0077583306 0.03477717 0.025608007 0.010636367 0.04845896 -0.021823203 0.022354338 0.047314752 -0.004559137 -0.02303288 4.1387975e-05 0.012847852 0.026424635 0.0021533482 0.018316295 -0.026476001 0.006738078 -0.04411428 -0.045773137 -0.030712008 0.04587886 -0.018060148 0.0058678016 -0.017451715 0.04885571 0.04970399 -0.029600693 -0.015213691 0.030438948 0.030621614 0.021625366 -0.021591043 0.0028869994 0.0110508315 -0.043429255 0.025613789 0.046371732 0.020243037 0.01227672 -0.034371175 0.032213736 -0.034265257 0.00873208 -0.022228885 -0.02748598 0.043621752 0.01970477 0.026044976 0.043722916 -0.020050729 0.031121168 0.030238833 -0.045208156 0.04179612 -0.035219155 -0.012837313 -0.014412414 0.031484965 -0.015043296 -0.047959626 0.038978484 -0.017298985 0.008261047 0.00752493 0.037452374 0.012233458 -0.0475153 -0.005787514 -0.035153557 -0.0036454685 -0.026977992 0.013644505 -0.017496862 -0.0016943216 0.040623855 0.049099866 0.0074514374 0.047006276 0.030871417 -0.008479107 -0.031036867 0.049149636 0.013988625 -0.027381385 0.0063326955 -0.046595205 -0.04662043 0.037532363
is 0.045150075 -0.01865542 0.038962696 0.005399216 -0.004856348 0.0069124587 -0.049149085 0.0012349375 0.043272723 0.0004703179 0.021933269 -0.001552593 -0.030191874 -0.0012793541 -0.008836031 0.0041975155 -0.03360877 0.0077799447 -0.046622433 0.043168906 -0.042933583 0.007765662 -0.008998178 -0.013418876 -0.036916815 -0.03607416 0.04036815 -0.044535626 0.022192191 -0.01460873 9.577349e-05 -0.04839572 0.04573257 0.038220588 0.03232247 0.012637448 0.016500916 0.035513986 -0.02208562 0.028814707 0.017430749 0.018814836 -0.009429347 -0.03165152 0.032224122 0.035637643 0.037749436 0.026205625 0.038102973 0.04281405 -0.009246111 -0.0011280291 -0.009128343 0.027163971 0.021887135 -0.02181821 -0.03957529 -0.0010722987 -0.012258399 -0.01989435 -0.045743026 0.020563904 -0.044848587 0.017178562 -0.03527553 -0.012176704 0.0466117 0.026197206 -0.04732169 0.006107986 -0.038667895 0.021336365 -0.014463831 -0.03652837 -0.016659569 -0.034867644 -0.03834965 -0.044111144 -0.02031672 0.042379584 0.047895636 0.00966971 0.036475066 -0.04851036 0.040092375 0.035930876 0.015082482 0.02950919 -0.007048536 -0.012729108 -0.021380533 0.033399332 -0.03247104 0.047629658 0.03997245 0.0014276505 0.0073978193 0.0032986999 0.007795058 -0.04340254
to 0.039534416 -0.0382895 -0.01394074 -0.02528131 -0.027436245 0.016389098 -0.006726492 0.04619107 0.00020880625 0.00352465 0.049639475 0.014513623 0.0047856197 0.04612777 0.024870243 0.009439111 -0.019980848 -0.045799207 -0.038736094 -0.009025253 0.024508033 0.010141302 -0.025163269 0.04241376 0.021106336 -0.029792834 0.04659872 0.042483997 -0.0070354342 -0.0060764328 0.02177478 0.045873772 -0.010127164 0.007620275 0.017847646 0.02942207 -0.02849332 0.019587424 0.022888687 -0.014023505 -0.012838207 0.028815094 -0.006081663 -0.016631115 -0.027901901 0.011617281 0.012295712 0.022959877 0.01970205 -0.0059792995 0.0012733229 0.042864535 -0.025692416 -0.0026920326 -0.018210925 -0.011381317 0.0035489686 0.0028605573 0.046427157 -0.023369908 0.0382703 0.007745087 0.02550299 0.044404034 -0.038696695 0.03546078 -0.044923615 0.007546641 -0.016131915 -0.037955724 -0.009369802 -0.04116428 0.018987361 0.035664413 -0.015286982 0.048015688 0.032379273 0.00463257 -0.031176819 -0.004424669 0.0057580844 -0.029255105 0.03761046 -0.03603523 -0.032376304 0.0069414154 -0.027804792 -0.022361804 0.02026273 -0.0016892329 0.019164767 0.022089388 -0.039664768 0.009025075 -0.01142814 0.029241327 -0.022849739 0.043835234 -0.025318658 0.014520649
a 0.0058666095 0.03393073 -0.030001223 0.00854522 0.029036794 -0.0033607706 0.010652792 0.0074894056 0.021887984 -0.011827745 -0.006660737 -0.019583737 0.0064768195 0.035749402 0.008738268 -0.033893395 0.032425355 -0.008599412 -0.017183125 -0.029232765 -0.023299277 -0.029651392 -0.0146391615 -0.012725938 0.048498873 0.03147259 0.008921303 0.0061841607 -0.043997195 -0.022169352 0.028162155 0.015249755 -0.041253746 0.0053397045 -0.008017741 -0.03254304 -0.009668849 -0.0062762275 -0.049916457 -0.007824399 0.047732975 0.04525994 -0.04853313 -0.027226364 -0.034460343 -0.015348174 -0.0008445494 -0.0017957576 -0.0014995709 0.03589615 -0.040745497 -0.037994873 -0.01750207 -0.0020013563 -0.02316686 0.02715728 -0.008333635 0.012856353 0.01806089 0.027037967 -0.03191786 -0.015086759 0.002096545 -0.03215419 0.006104268 0.017122518 -0.04126606 0.014300499 0.047691215 -0.030257 0.0192029 0.009880424 -0.033240296 -0.03013798 -0.013843905 0.040574048 -0.016073119 0.016331304 0.008960545 -0.020742988 -0.032484196 -0.023819936 0.0006877668 -0.020559048 -0.0026187897 0.024765994 0.03766613 -0.011908162 -0.012572896 0.038459826 0.007847048 -0.043179013 -5.4754317e-05 0.036131922 -0.049961925 -0.04422132 -0.008590721 0.016220275 -0.008025564 -0.026788188
and -0.039556064 0.0062517896 0.013879489 0.013882484 0.047311846 -0.009332906 -0.024492431 -0.020346034 0.0046649575 0.045071516 -0.02075833 0.018392134 -0.0025773756 0.034345593 -0.0070216283 -0.021296311 -0.024035668 -0.0435475 0.047176432 -0.020480026 0.014522228 -0.022759033 -0.02383337 -0.0008914247 -0.010930657 -0.02864995 0.017022196 -0.012065422 0.01720694 -0.010687627 0.00559368 -0.004247248 0.03730711 -0.044575512 0.001856327 -0.032569814 -0.023483062 0.021089282 -0.00539241 0.033280816 -0.00047769397 -0.035443366 -0.030097937 -0.020720934 -0.026713027 -0.037123777 0.029937971 -0.046125878 -3.6217272e-05 0.017105032 -0.016158484 -0.041231025 -0.0052019246 -0.013692081 0.020009685 -0.013007283 0.01665802 -0.022358 0.035163175 0.031626645 0.015541028 0.03753842 -0.03958992 -0.013143837 0.042667296 0.020052064 0.009926558 -0.018222608 -0.010106612 0.009176813 -0.032547273 0.027700651 -0.023326814 -0.010294102 -0.0051115155 0.027078811 0.025619935 -0.024701536 -0.0416584 0.04832605 -0.017647423 0.016995218 0.038192872 -0.04692639 0.008917939 -0.013171256 0.049029183 -0.0152288675 0.03980552 -0.015891492 -0.032989703 0.010401487 -0.03636538 -0.016866434 -0.013459422 -0.04069052 -0.03273796 0.017196786 0.024301592 0.019947205
between -0.018621277 -0.011278547 -0.025676155 0.038945843 -0.028291618 0.04227786 0.013137724 -0.025057757 -0.0046093464 0.045864332 -0.005756773 -0.024040533 -0.026708579 0.0063736215 0.011013735 0.049312893 -0.039970376 -0.0075886026 -0.0058314204 -0.0034553409 -0.04169766 0.016325746 0.023413826 0.043259826 0.040068936 -0.045675613 0.0015383363 0.049156714 -0.02063849 -0.037967145 -0.0028898492 -0.010451268 0.00025875494 -0.011438917 -0.034268975 -0.032492295 0.04389495 -0.03424374 0.044825222 -0.04425205 -0.010519624 -0.047666825 -0.015794896 -0.0070703253 0.003451012 -0.027426256 -0.038924407 -0.028985227 -0.002611898 0.017722335 0.04236454 -0.024764454 -0.03766924 0.0012996905 -0.044063926 0.0034227856 -0.048541594 -0.049790777 -0.03311868 -0.038345255 -0.044729244 0.038251165 0.04371134 -0.022405697 0.04885335 0.043921065 0.038639475 0.010517836 0.008143388 -0.0035808906 -0.040181555 -0.036418937 0.016699221 0.02213141 -0.0022389889 -0.040734984 0.04511198 -0.018373288 -0.0150460005 0.0010898598 0.015877988 -0.04143449 0.01883686 0.012050856 -0.030244578 0.045660805 0.049497496 -0.019611811 -0.045727577 -0.007946897 0.040670145 0.047371533 0.017664302 0.010967828 0.029912617 -0.027752055 0.035969768 -0.017723225 -0.04720955 -0.0051940195
time 0.040586177 -0.03510679 -0.020762503 -0.019017613 -0.010299623 0.031210367 -0.008879162 -0.0023649447 -0.034557737 -0.023363804 0.022435639 0.003072787 -0.042049766 0.034630347 -0.03118707 0.0010622032 -0.0017165318 -0.034377493 -0.041560687 0.023149941 -0.013102699 0.015029479 0.01419678 -0.0037791617 -0.009397458 -0.028863478 -0.013390087 0.04745171 -0.028151011 0.033212338 0.009105086 0.034671176 -0.022370685 -0.044178035 -0.021920836 -0.043270852 0.0208099 -0.033216882 -0.038305067 0.023826066 -0.035311602 0.038378585 -0.026367856 0.027855981 -0.0024363399 -0.010367263 0.043738987 0.045182493 -0.026348233 -0.02810439 0.041936245 -0.048185598 0.016269062 -0.026115824 0.029116396 0.0032650717 -0.044620574 -0.0030125752 -0.012858309 0.023698281 -0.03263416 0.04871234 0.02799208 -0.029393053 -0.0032569394 -0.014293157 -0.047892906 -0.015851844 0.030766461 0.020090673 -0.044392943 -0.011493873 0.02105793 0.018755745 -0.027707148 0.0292967 -0.028418541 -0.012335669 0.018344667 0.033969905 -0.041929077 0.023456726 -0.034229495 -0.03911673 -0.0061337575 -0.04545913 0.030287351 -0.0029127225 -0.0046787746 -0.036916815 0.04888076 -0.023434151 0.021602359 0.032928813 -0.013488531 -0.041027404 0.00031458214 0.040441502 0.013125274 0.048853625
serial -0.006226789 -0.048635937 0.04337771 0.044377636 -0.03936454 0.009149779 0.0052895434 0.043866027 -0.021016395 -0.038993526 0.020807061 0.031910803 -0.030234968 -0.028668715 -0.004501246 0.014905337 0.008827031 -0.0034457557 0.008393623 0.019651506 0.046024594 0.01819959 -0.0024638996 0.026153002 -0.0044253357 -0.03723631 0.03154428 0.011618268 0.023169193 -0.021862853 -0.013616383 -0.014989149 -0.014662374 0.025049437 -0.04985839 0.023518588 0.012603652 -0.038959898 -0.019860888 0.031987 -0.019557714 0.03795136 0.023591641 -0.010513436 0.00069526583 -0.0058963895 -0.018496156 0.03736509 -0.024458874 -0.030843485 -0.02166809 -0.001014173 0.011570405 0.025307838 0.016246509 0.034890186 -0.0014399886 -0.042421486 0.020210471 -0.014181722 -0.017350387 0.014761079 -0.031324685 -0.041687153 -0.02463218 -0.048958328 0.009736132 -0.010395158 -0.0121042505 0.013172496 0.01902851 -0.017670047 -0.003458023 0.044885706 0.00821786 0.030348215 0.042154875 -0.04283166 -0.0333212 0.042334747 0.026078667 0.0045939796 0.005681038 0.010945521 0.03868616 -0.037927963 -0.023202932 0.012161434 0.015110645 -0.00674342 0.038848493 0.049461428 -0.014090907 0.038168002 -0.024320532 0.008229744 -0.035380304 -0.03855952 -0.037472583 0.027008247
interval -0.025728954 -0.0052827224 -0.008259643 0.032044206 -0.030816747 0.037435185 0.03656589 -0.039569866 -0.02422141 0.01959366 0.03832898 -0.046503734 -0.034181334 -0.0072517507 0.033277024 -0.02493689 0.040744174 0.019524883 -0.02603221 0.041944597 0.034832288 -0.025475873 -0.03832104 -0.0020479932 0.03815588 -0.010404218 0.049470816 0.0013722181 0.0038511045 -0.047900677 0.024838928 -0.0021017082 0.045171585 -0.031837 0.04690336 -0.0148310065 -0.03828893 -0.04791863 0.013073791 -0.030926479 -0.027888764 -0.01601993 0.036232267 -0.010463547 -0.0426399 0.029473078 0.040363763 0.010232914 -0.025899662 -0.0017716512 0.02808607 -0.015008103 0.034950722 0.003766261 0.02944598 0.031719122 0.041533414 0.039577294 -0.033742893 0.040350046 0.028802875 0.012829248 0.03320432 -0.012250673 0.030175399 0.04989065 0.020378124 -0.018940603 -0.035261918 0.021716539 -0.033337176 0.027011227 0.047516633 0.004405342 0.03611279 -0.014060486 -0.021333313 0.007086862 0.018827114 -0.032026637 0.023659099 -0.007562816 -0.00017526001 -0.031121124 0.026529621 0.022357237 0.004297029 0.036989618 -0.013654493 0.018770885 -0.013616182 0.013732266 -0.014448486 0.0459061 0.038284186 0.026704121 0.038970735 -0.006350063 0.00952642 0.042963754
than 0.007300593 -0.00091295317 0.045520496 0.035324816 -0.0122750625 0.036587145 -0.020876814 -0.039380588 -0.020273436 0.011157632 0.0066811666 -0.015531741 -0.002698671 -0.009384334 0.01251917 -0.021159101 -0.03876493 0.033385444 0.015189026 0.009602118 -0.019869447 -0.02238555 0.037651066 0.0142068975 -0.016279053 -0.001426708 -0.03981979 0.037144277 0.0005367771 -0.010796916 -0.017990313 0.016660836 0.034244444 -0.047420394 0.02992202 0.04662982 0.0016402379 -0.021068526 -0.0033256412 0.0015000328 0.016660217 0.016629267 -0.015129447 0.039188538 -0.012833882 0.016893212 -0.008896351 -0.032271646 0.04677129 0.010664452 -0.005701579 0.014482986 -0.023923457 -0.00561155 -0.0008464083 0.0014929064 -0.0027023554 0.03277098 -0.001800023 0.047952916 -0.028232444 -0.011176527 -0.033945836 -0.035129525 0.039992582 0.026716735 -0.009479903 -0.02374412 0.019149926 -0.009429313 0.002193462 0.02088261 -0.031058466 -0.047965538 -0.0148207545 -0.031698573 0.038787793 0.039873827 0.043057945 0.012489773 -0.00455644 -0.024529016 -0.008244336 0.0019656308 -0.025272965 -0.0031425469 -0.044444203 0.040884163 0.041170146 -0.011980116 -0.020379448 -0.04535378 0.02830119 -0.036938228 -0.043640375 -0.024216939 -0.04126811 -0.026091909 -0.04097178 -0.029078735
be 0.041833986 -0.00902015 0.030593622 -0.016920842 0.0038605817 -0.04998511 0.013220821 -0.028941179 -0.047512043 -0.030266345 0.0016775355 -0.008182108 0.038041655 0.0014008284 -0.034400772 0.03542235 -0.031041766 0.023722839 0.008365631 0.035182025 0.024739634 0.032731485 -0.0044496544 -0.047327887 0.015757684 0.016718697 -0.020247007 -0.042395473 -0.016059339 0.042239632 0.007836901 -0.029548848 -0.040693082 -0.0456522 -0.049652375 -0.018256046 -0.020517731 -0.008972418 -0.0047385804 -0.023942554 -0.014518283 -0.0312482 -0.007541813 -0.039640248 -0.009296082 0.04086696 0.0023818128 -0.049890663 0.021641683 0.003715407 0.045708958 -0.041888237 0.048425082 0.023491513 -0.01748649 0.025176715 -0.040700756 0.04715189 0.02486727 0.023663092 0.0006792918 -0.018058728 -0.030396713 0.03591684 0.02629615 -0.04244883 -0.043508925 0.017509412 0.026119862 0.035027433 0.018029783 -0.03290019 0.018352892 0.0016497746 0.04353318 -0.0049090274 0.03582013 0.029167082 -0.0048111677 0.027656619 0.014062811 -0.03665272 0.0427962 -0.049963247 0.031056393 0.0049245246 -0.03026675 -0.027726937 -0.028944636 -0.041411687 0.029607479 -0.010489903 0.010614287 -0.016172837 -0.027727997 -0.0017886758 0.026510168 0.041596804 0.03482038 -0.031168832
5 0.01810095 0.011254013 0.024042014 -0.023834003 -0.042953264 -0.026369572 0.011182368 -0.027681708 0.04799262 0.019205581 -0.03695067 0.028787564 0.003799677 0.035889152 0.027178738 -0.0072238445 0.0026504397 -0.02504735 -0.020629812 -0.0135555975 -0.007163536 0.0018730536 0.009832572 -0.0021271482 0.045058493 0.03769425 0.036697652 -0.031026674 -0.029964495 0.019195464 -0.017462134 0.00772072 -0.018740334 -0.040467225 0.04831532 -0.044303622 -0.030365694 -0.044928372 0.026937906 0.02481861 0.027128067 0.012796488 0.042670634 -0.0017151348 -0.04235177 -0.009998359 0.0392575 0.046122562 -0.026195312 -0.00312965 0.04359441 -0.04890882 -0.025412036 0.047108 0.013565388 -0.0129591115 -0.049993362 0.026734661 -0.009045672 -0.045979228 -0.02845328 0.00017503649 -0.044102002 0.024203967 -0.012326766 -0.04474747 -0.0056667924 -0.0015543103 0.016662862 -0.03680426 0.025180709 0.0065533295 -0.012819577 0.03161409 0.008894779 -0.0015192628 -0.020427978 0.028609898 -0.0019713417 0.0026641712 -0.036657713 -0.017670274 0.0016703829 -0.04851241 0.0067179687 -0.031764247 -0.008833148 0.03848442 0.045334246 0.022766326 -0.046744287 -0.020514905 -0.0050917976 0.02715223 -0.012278654 0.0054067746 -0.0058016554 -0.031663824 -0.015243746 -0.018157016
days -0.016353834 -0.025043761 -0.018637381 0.033707265 0.02699143 0.019182194 -0.0035237186 0.009109963 0.019570481 -0.03966991 -0.037369825 -0.03417255 0.033062268 -0.0016570203 0.04874302 -0.019571746 -0.00092401356 -0.023287857 0.0035966635 0.006085586 0.0075193867 -0.031055307 -0.035558306 0.0014381781 -0.014378797 -0.009873223 -0.0013405196 -0.014729001 -0.04159789 -0.0043806434 -0.017034769 0.009087659 0.018509876 -0.0100438595 -0.044291902 0.034494195 0.046543967 0.01789162 -0.04971844 0.04469664 0.034979355 -0.042472124 -0.010613896 -0.020237422 0.003277041 0.031197239 -0.0007279515 -0.018011034 -0.041463733 0.03266493 0.001963377 -0.0063609704 0.02138399 -0.0068361536 -0.0137033835 0.010019027 0.0007297285 -0.02489698 -0.041454814 -0.048272766 -0.02218684 0.027855527 0.03132719 0.031535808 -0.002993621 0.0033961423 -0.010772467 0.037387226 0.041062165 -0.0044893846 -0.036719777 -0.009633698 -0.026718928 0.049916256 0.016369764 -0.030432438 0.048222873 -0.0045037866 -0.0078043453 0.046615217 0.032721948 -0.036779415 -0.010787439 0.020349015 0.024421562 0.029462289 0.045424823 0.048700046 0.04194924 -0.021091236 0.005918611 -0.007753633 -0.041932117 0.041042034 0.0043208487 0.049301993 -0.036552586 -0.010958515 0.041872468 0.007484842
– 0.037975732 -0.0038437732 -0.033399917 0.007022716 -0.018756175 -0.013807736 -0.02965883 -0.044056237 -0.005747009 -0.021441495 -0.016230058 0.048026588 0.04427928 -0.01721245 -0.028810775 0.04211997 -0.026850438 0.011252679 -0.022363603 0.026323188 -0.011767257 -0.008627117 -0.01646763 0.037553076 0.017635133 -0.018124856 -0.015990019 0.020336438 -0.013379145 -0.005035389 -0.032708243 0.04856162 0.03759015 0.036290493 0.009474684 0.03704897 0.026073467 0.031685304 0.03649651 0.027998481 -0.006649114 -0.022479713 -0.006987918 0.036308993 -0.00833156 -0.04402342 0.0016529448 0.0013695359 -0.038673807 0.02786186 -0.014111064 0.036686067 -0.008382879 0.00072355196 0.048300896 -0.021757532 0.022602987 -0.013431441 -0.015355814 -0.04860692 -0.014129914 -0.048858285 -0.04102887 0.029719148 0.03096683 -0.034317635 0.02187505 -0.044776093 0.026963737 0.02256025 -0.03940765 0.017886888 -0.017444767 -0.027732706 0.048366074 -0.035936665 0.00083763525 0.039415482 0.0071595795 0.038646843 -0.011135507 -0.04848056 0.031618882 -0.011520814 0.008112859 -0.042375088 0.03315724 -0.018675826 -0.034182407 0.043852556 0.003285516 -0.038143586 0.030100334 0.029355 0.04859532 0.032637987 -0.019324934 -0.0039389133 -0.032030366 -0.038841307
are 0.021473657 -0.026823152 -0.006816305 0.037681673 -0.0051815994 -0.040345978 -0.037735082 5.45606e-05 -0.017571937 -0.013471447 0.010780703 0.035981122 0.039698888 -0.010035027 0.016076688 0.0064815283 -0.03350972 -0.01756481 -0.04900687 0.03434838 -0.004485227 0.002901338 -0.043882262 0.02424549 -0.027708506 0.031831447 -0.035149597 -0.017280769 -0.025394022 -0.032945633 -0.022260297 0.0011356957 0.02027407 -0.017703153 -0.015929438 -0.021464348 0.013156626 0.011354603 -0.012675822 -0.02110672 -0.035847496 -0.049144734 -0.0024489872 0.0006842986 0.0061159953 -0.0077096447 -0.019642878 0.036892448 -0.042450737 -0.039494254 -0.01371764 0.015619781 -0.017776169 0.013318624 0.012853984 0.02223048 -0.013977788 0.037670795 -0.030372072 0.031499002 -0.010553408 -0.027935207 -0.018821467 -0.00055070966 0.016000714 0.02107798 0.007387042 0.01748098 0.04407661 0.028265666 -0.0003729686 -0.041858114 0.033498634 0.044620227 -0.04373548 -0.047964144 -0.025100483 0.04627267 0.04395571 -0.04087181 -0.02393843 0.040070083 -0.029463733 0.025494803 -0.026119877 0.016315315 -0.00016153976 -0.028208686 0.019841757 0.029139291 -0.047491457 -0.008988284 -0.019787455 -0.03135141 0.029594015 -0.015238069 -0.017509472 -0.043655958 -0.019294774 0.04400691
viruses 0.018371318 -0.015619002 -0.031201482 -0.049575996 -0.03328844 -0.018557418 0.033395056 -0.032867588 -0.046884812 0.019373622 -0.04211811 -0.045567643 -0.0007019639 -0.017851733 -0.03611151 -0.025911331 -0.03046645 0.013753381 0.04720113 0.0033723712 0.028739784 0.0041363016 -0.043126058 0.0295779 -0.023674523 -0.047822773 0.012450647 -0.01737114 -0.031281963 0.027041737 -0.040225126 0.029247213 0.028464865 -0.004226852 -0.04874369 -0.040465355 0.017267022 -0.044868506 -0.0015709288 -0.03174839 0.04319972 -0.037365757 0.049373772 0.030809592 -0.018813193 -0.0016523004 0.020070557 0.023565244 0.02275062 -0.046738315 0.030820016 -0.022220587 0.018813025 0.004375063 0.037467252 0.009476174 0.030158903 -0.04648694 0.012583021 0.04872704 0.029940736 0.04306631 -0.013257265 -0.0065886267 0.04476035 0.021784592 0.025654566 0.011215366 0.049081568 0.009328209 0.031234827 0.009970643 0.041625086 -0.010409869 -0.0037317388 -0.005712867 0.004173517 -0.029010355 -0.027091622 -0.03869326 0.046224725 0.007941902 0.04934049 0.016128276 -0.028282583 -0.04988363 -0.04163017 -0.019689871 -0.008397795 -0.009475995 0.0035255551 -0.047129847 -0.04513656 0.03017265 -0.0065129884 -0.03590714 0.015377287 0.023556758 -0.049546767 -0.019594848
shorter -0.02586515 -0.033637837 -0.0010214932 -0.028972244 -0.020224547 -0.022605658 -0.030458618 -0.013762582 0.0010749586 0.0049961098 -0.045292545 0.010316275 -0.0031786934 0.016318347 -0.018500708 0.044434737 -0.027461803 0.00027064234 0.012711454 -0.0036201589 0.016181778 -0.019657541 0.034142707 0.015948597 0.01766095 -0.032788515 0.009356059 -0.024248196 -0.03906616 -0.006593991 -0.01797967 -0.030843033 -0.023572398 -0.028693294 -0.00064299256 -0.045982804 -0.04242256 -0.033036843 -0.004240714 0.037389282 -0.021464659 0.004332792 -0.021990871 0.023078296 -0.0034393445 0.033818413 0.0026935562 -0.046630096 0.025174167 0.022581127 0.009751271 -0.03490547 -0.04621725 -0.013345838 0.004335247 -0.019342244 -0.037327528 -3.4965575e-05 0.014099862 -0.03282981 0.04180583 -0.017335318 -0.022691106 -0.020319391 -0.011334907 -0.043993987 0.018287454 0.006509412 0.024539959 -0.026826395 0.023750018 0.021597411 -0.046753705 -0.035946526 0.0398446 0.020749401 0.032200944 -0.018089842 0.036344994 -0.027464343 0.031135228 -0.028051961 -0.028692175 -0.023396302 -0.021533811 0.046753395 0.040706027 -0.0056594126 0.03877387 -0.030217683 -0.034099758 0.016927216 0.022718813 -0.026999105 -0.027622556 -0.0026445612 -0.0039547905 -0.023818588 0.020471368 -0.03647276
from 0.02230635 0.04383086 0.00034111738 -0.03327608 -0.04405972 0.024600755 -0.0074097514 0.047430564 -0.03216827 0.015343223 -0.04514115 -0.010666311 -0.046642195 0.03876208 0.014403012 -0.024421299 -0.01693628 -0.017479897 -0.036462985 -0.030640304 -0.01690929 -0.027468825 -0.033431828 -0.016962193 0.0010034926 -0.031280175 0.016693238 0.021934617 0.025671665 -0.030322934 0.014684033 0.00585562 0.043827478 -0.03879411 0.012714233 0.0048541315 -0.03751403 0.04207221 -0.0040070303 -0.028205037 -0.0025278218 0.036375467 0.039286915 0.04174057 -0.011952244 -0.033555545 -0.03249209 -0.042861212 -0.010217406 0.012488306 -0.0062168613 0.020199288 0.036199544 -0.01386255 -0.012505971 -0.0011042841 -0.013918184 -0.046510708 -0.019484723 0.01909988 0.0117717385 0.030027274 0.008808326 -0.019007612 0.0007513985 0.04798999 0.03404056 -0.019144727 -0.045162 -0.04922831 -0.03691268 -0.024303878 0.019017551 -0.029234076 -0.040059626 0.015019361 0.010649838 -0.048530973 -0.047174215 0.0125395395 0.0015202276 0.016824435 0.007691622 0.015610304 0.037844088 0.047213916 -0.048497 0.03768274 -0.048472047 0.010550439 0.0084033385 -0.044447076 0.011930622 -0.015125848 -0.033707894 -0.016586531 -0.03483192 -0.018274464 0.02765907 -0.0381094
appearance -0.03234929 -0.039639615 0.0196282 -0.026275968 -0.033404663 0.0034859776 -0.026626099 -0.023973752 0.03818554 0.04917786 -0.022289896 0.024677482 -0.007879864 0.023807313 -0.029624451 -0.021108592 -0.03992363 0.029034857 0.004196584 0.0108894 -0.0067778006 0.022198822 -0.005304098 0.030256059 -0.022002626 -0.034294702 0.009664454 -0.020664502 -0.031784046 -0.0026882775 -0.02580582 0.024328481 -0.04370823 0.02253035 0.045748774 -0.038395822 -0.035740983 -0.026043773 -0.02605809 0.04569227 -0.012435876 -0.006999217 0.011927854 -0.0337108 0.03386197 0.041165102 -0.042369664 -0.018671941 0.031150553 -0.027432894 -0.03379743 0.034675363 0.0003629923 -0.015871666 -0.0087246075 0.02021319 0.04268444 0.0010061152 0.03622823 -0.03688649 0.03587917 0.02880342 0.003179025 -0.047476985 0.048688997 0.026735675 -0.025383878 -0.015523948 -0.04377803 0.04738004 0.021094669 -0.04610267 -0.027942229 -0.04108864 0.04628748 0.0131380595 0.04165199 0.04905199 0.008762967 0.04208863 0.034824256 0.01734532 -0.047302734 -0.04456681 -0.025533343 -0.030972648 0.012727108 -0.047930337 0.02375276 0.013756249 0.023429658 -0.0033322796 -0.0048647895 -0.03371153 -0.008546699 0.008161377 -0.031032419 -0.024259819 -0.04411633 0.012459755
symptoms -0.040744293 -0.0026456602 -0.015438329 -0.025965322 0.03814595 -0.012052514 0.009437978 0.032731738 -0.035023283 0.007114075 0.011927247 0.03448799 -0.008391798 -0.013958298 -0.015215836 -0.039741553 0.04626072 0.01979563 0.021044638 0.04943807 0.027581844 -0.028788006 -0.004470706 -0.014234565 -0.04384147 -0.0488166 -0.009222519 0.028530803 -0.026505126 -0.021325529 -0.027369726 -0.044954505 0.0051181316 0.0042643063 0.023024801 0.0014826767 0.03790727 0.011320688 0.045164946 -0.034091033 0.006031882 0.04385208 -0.017452598 -0.027419914 -0.028116155 -0.039678562 0.0011597052 0.0017867684 -0.02608335 0.028192054 0.028612528 -0.017802201 -0.04773898 0.040954735 -0.018998658 -0.013704706 -0.03761064 -0.030916667 -0.0060870536 0.0062971003 -0.01971339 0.045627046 0.006889306 -0.016834188 -0.02943939 0.014937807 0.016875234 0.03425247 -0.010477673 -0.049859203 0.04188898 0.0142711885 0.030447315 -0.033528104 0.022394229 0.008293819 0.018272225 -0.045910954 0.025889818 0.011218868 0.0037557967 -0.048741963 0.021310333 0.008566238 -0.036944665 0.036965 -0.01737962 -0.019508159 -0.030724406 0.02549437 -0.016290676 -0.014286637 0.04452913 -0.0077078342 0.008442331 0.046616945 -0.026556611 0.034307484 0.008838691 -0.037402093
while -0.009717178 0.029146444 0.02404536 -0.046460487 -0.022267973 -0.014022399 -0.028753137 0.037474167 0.015294563 0.025564838 0.04663909 0.008710552 -0.041980874 -0.029898359 -0.016487967 0.021990005 0.010234285 -0.044590067 0.03529494 -0.045214403 -0.03501042 0.039768312 -0.025540352 0.013118628 -0.012537371 -0.02287953 0.048426118 -0.048337888 -0.019045651 0.047191802 -0.0033036694 0.01683196 0.034068372 -0.0003234148 0.013925839 -0.015818704 0.04347613 -0.00079400465 -0.012787152 -0.048896134 0.036610093 0.03437071 0.04856633 0.007940151 0.0004714355 0.043677058 -0.0037499182 0.048777867 -0.04152329 -0.008624662 -0.0076259 0.024209488 -0.040854193 0.008062124 0.017009128 -0.03653872 0.009540487 0.0011090152 0.040909503 -0.0075165853 -0.015922476 0.024142314 0.042993117 0.00318297 0.0151398815 -0.032685474 0.025071528 -0.02804408 0.009464491 0.04215045 0.014474425 -0.010234751 -0.04134699 -0.008516669 -0.031052709 0.0021323673 0.043336842 -0.01161889 0.043147434 -0.034561682 -0.039936233 0.037145387 0.011979245 -0.041255094 0.026585963 -0.014197778 -0.009902619 -0.036256265 -0.028164601 -0.009514879 -0.021198666 0.03620852 -0.045257557 -0.018199943 0.031504814 0.0025196783 -0.012533687 -0.030766582 0.008869864 0.039715264
3 -0.017281257 -0.012307633 -0.018440962 0.030245248 0.022889283 0.008225717 -0.029298354 -0.020716226 0.025615368 0.035305265 0.03161056 0.040004518 -0.005284287 0.00063384697 0.035516392 -0.010522079 0.047216143 -0.048298445 -0.03463123 0.011416625 0.02021334 -0.004969418 -0.028147114 0.04194062 -0.030254973 -0.02785126 0.031788718 0.027224217 0.010188304 -0.016537368 0.024391066 -0.034041606 0.04434513 0.011634637 0.04617205 0.0049622655 -0.0016253591 -0.009358786 -0.0319338 -0.031077182 -0.012591947 -0.020203603 0.03192837 -0.0026845932 -0.019336117 -0.032737423 0.03745884 -0.026752485 0.003747929 -0.0014426336 -0.0055617094 -0.016180038 0.028988685 -0.03285835 -0.0012840144 0.031587068 -0.013055515 0.0023919716 -0.041873075 0.028807882 -0.016478159 -0.025468469 -0.005705036 -0.020138634 0.015551601 -0.031286705 0.031938445 0.010986365 -0.03540709 0.007043518 -0.030082345 -0.043333113 0.04157063 -0.0066997185 0.012375284 -0.03946352 -0.030394722 -0.0064686164 0.0019627921 -0.029398 0.0087371245 0.0065768138 0.0314267 0.04767097 -0.035931896 0.007658411 0.027704205 -0.016219854 0.023893427 -0.024734711 -0.014127124 0.041886274 -0.0344704 -0.03523717 0.034325395 0.016240302 0.042940345 0.010699283 -0.025480771 0.046090532
this -0.047923256 0.009794902 0.04641134 -0.0393404 0.042291176 0.015776683 -0.048265506 -0.017921887 -0.02866069 -0.015557386 -0.024418056 -0.014084518 0.049501386 0.035306368 -0.005242575 -0.028758967 -0.02779981 -0.03204842 -0.013344906 0.022266615 0.019386444 -0.034949232 -0.0018931031 0.008707561 0.029264819 0.016014408 -0.00083376095 -0.04203261 0.02502178 0.022956695 0.0139462985 0.000785172 0.026937153 -0.027108325 0.040569846 -0.008420825 0.0047958978 -0.020862652 -0.045963883 -0.034128238 0.03145689 0.03810439 -0.02075702 0.04791521 0.036532257 -0.043900322 0.038224805 -0.022782875 -0.044020843 -0.025344169 -0.0066759475 0.044406366 0.042775583 0.04408593 0.01136408 -0.017450262 0.015004981 -0.021740794 -0.018294405 -0.009401239 -0.010657001 0.007693492 -0.03046528 0.049017165 -0.030838324 0.03883839 -0.028953088 0.010903835 0.02710021 0.029253293 -0.012642991 0.03042585 -0.012378693 -0.04792881 0.012444459 0.038195696 0.028699841 -0.037659455 0.041548554 -0.032323025 -0.041783772 -0.016653933 -0.03609737 -0.04568858 0.041774776 -0.036778174 0.033988927 0.03875825 0.029906604 0.0009574294 -0.006889213 0.038089525 -0.0059016347 -0.043540906 0.017280411 0.03628141 0.034841407 -0.046929467 0.039689507 0.017452445
that -0.037050985 -0.03031118 0.01795191 0.017048422 0.04244696 -0.04588728 -0.0017562285 0.032726895 -0.011443257 -0.020987308 0.016557861 -0.025812436 -0.022570765 -0.024189616 0.0075738057 0.0129472725 -0.033866573 0.010733306 -0.047951043 0.024661984 -0.04549532 0.02426989 -0.04982996 -0.004070569 0.024602864 -0.028400673 -0.019319868 0.030037526 -0.012136985 -0.046774067 -0.013212811 -0.041120242 -0.026168263 0.021696854 0.043446388 -0.03165541 -0.035285316 0.015036497 -0.035540223 -0.022071337 0.03652736 0.01280025 0.0033209808 0.017739985 0.009751357 -0.02254547 -0.03535881 0.039894473 -0.017544605 -0.04874753 -0.013309322 -0.008471489 0.030033384 -0.0019301064 0.031172719 0.028895345 0.006515503 0.04879004 0.029839884 0.005071413 -0.048380423 -0.012101807 -0.0064199083 -0.04983289 0.043087248 0.0058250315 -0.029510284 -0.00065206364 0.028341997 -0.048211873 -0.004396975 0.021041933 -0.0024427287 -0.021838963 -0.0026765838 -0.040917136 -0.033234775 0.014638316 -0.030128432 -0.027195144 -0.017077029 -0.024475385 0.01430105 -0.043692794 0.003996026 -0.014018677 0.025092553 0.044485297 -0.035476457 -0.045500614 0.029571343 0.025029067 0.039056804 -0.015207659 -0.012513924 0.046730194 -0.02657931 0.020037267 0.041019727 0.049076844
can -0.024401033 0.015338991 0.041277517 0.03325213 0.04714528 0.005429495 0.035446133 -0.04273615 0.03517255 0.02199855 0.038876187 0.040927913 0.03083438 0.035886493 -0.03598975 0.038235817 0.034976173 -0.015758563 -0.010695256 0.000732325 0.0065947063 -0.022912705 -0.0075750127 -0.019254042 0.041620422 0.029870693 -0.046702564 -0.024865687 -0.021657813 -0.0032933243 0.03915676 -0.016589295 -0.036837827 0.002620507 0.045435283 -0.021305108 -0.0151375905 0.048043374 -0.021903181 0.033710662 -0.022951186 0.049214277 0.0008106008 -0.048706055 0.040096033 0.013742756 0.020614598 -0.038464345 -0.003161598 0.020980883 0.015461121 -0.030923534 0.0092509985 -0.034270883 0.028287236 -0.0036108978 0.03309008 -0.016448043 -0.04951271 -0.048693884 0.0018175021 0.0071514845 0.0020264983 0.036800418 -0.030027771 -0.0036227703 0.03589907 0.043272566 0.0024563558 -0.025154984 -0.01397568 0.03255606 -0.011026464 -0.036533047 -0.03486638 0.033676002 0.024661172 -0.027956152 -0.03255533 0.013272334 -0.01420331 -0.023315966 0.044358123 -0.027677942 -0.037805878 0.034782376 0.0067857616 0.026578356 -0.029196514 0.03999636 -0.017213296 -0.025906492 0.025782887 -0.022574747 -0.042475726 0.028992247 -0.008532632 0.04602542 -0.02776438 0.04290806
in 0.043882314 0.047886264 0.048353698 0.029212523 -0.028528048 0.008230317 -0.036726773 0.02837013 0.032701004 -0.0034901612 -0.018396161 -0.009084474 0.012526501 -0.0068879947 -0.02429024 0.022669163 -0.0022200346 0.0349941 0.028836515 0.027940605 -0.042544868 0.0045315027 -0.026233638 0.01581819 0.01762623 -0.0074618347 0.018843684 -0.03351672 0.003648065 -0.013304569 0.009618163 0.0035971403 -0.043550648 -0.018244732 0.043793093 0.039181713 0.037093844 -0.018789232 0.021537159 -0.025070095 -0.041207146 0.008002639 0.024096813 -0.034185994 -0.042613007 -0.0029763468 0.03228532 0.036781084 0.02642944 -0.039651405 0.0070597157 0.028268192 -0.023994494 0.035670046 -0.0026058778 -0.028130293 -0.038842868 -0.015386187 0.036255624 -0.003432393 0.03139707 -0.03367733 -0.043458726 -0.004288148 0.0140253045 -0.015450764 -0.0340214 0.00042933226 -0.03689816 -0.04524634 -0.0053014047 6.818771e-05 -0.019267429 0.037290957 0.030382905 0.039431874 0.03229287 0.028661836 -0.010551512 -0.037092257 -0.0032728687 0.046979975 -0.012723587 0.04354394 -0.031134296 -0.028114606 -0.015335213 -0.03153596 0.031272475 0.016351674 0.03767604 -0.025069118 0.016419318 -0.012331665 0.013498012 0.040609095 0.03882226 0.008877061 -0.035801254 -0.047583856
major -0.015199505 -0.039104797 -0.0066140667 0.0061893575 -0.027174687 -0.0175565 -0.034411095 0.044731084 -0.030572772 -0.045454767 0.017487597 -0.033073604 0.039330866 0.0039488673 -0.0044420958 0.010763466 -0.047042884 0.0070465095 -0.02397778 -0.042167284 -0.0019889697 0.011590768 0.04432111 -0.023970282 0.01221497 0.045260344 -0.030044103 -0.030161714 -0.044398963 0.013089646 0.0011641979 0.032267082 0.044834588 -0.032877136 -0.011210643 0.018783357 -0.049423646 0.014106106 0.0062749386 0.038502935 0.018795397 0.015466813 0.024354313 0.03880464 -0.036396373 -0.017739177 -0.039362848 -0.009127628 -0.033326946 0.014851894 -0.009337414 0.016861085 0.033496287 0.02264196 0.037559975 -0.008423638 -0.043041755 -0.048567083 0.022342 -0.018281806 0.043149237 -0.008292019 -0.0046988614 0.020124782 0.01962069 0.04251616 0.047196757 0.0059466586 0.022340987 -0.04710709 -0.019346667 0.04479355 0.009414732 -0.04815295 0.022789422 -0.044042278 0.014954198 -0.032804847 -0.047690332 -0.01955055 0.01449449 -0.024678206 0.0067368746 0.034339856 0.013753567 -0.019395053 -0.046702456 0.020439122 -0.005053878 0.011230685 -0.03720926 0.008882843 -0.0025651567 0.04206605 0.038060974 -0.042526294 0.04245354 0.0347005 0.004964102 0.007479869
driver 0.009015333 -0.01695912 0.0273172 -0.024791313 0.045074847 0.03635982 0.035589997 0.027506981 0.015755761 -0.04879105 0.007735133 0.045756746 0.03266437 -0.043197405 -0.020560443 -0.036978792 0.042835627 -0.013786316 -0.046571624 -0.0048471093 -0.0024829283 0.005103208 -0.02006129 -0.003848493 -0.0010773167 -0.008134365 0.04967815 0.02133235 0.030783486 0.030826893 0.016001608 -0.036898293 0.015902583 -0.030855764 0.04028603 0.03708898 0.0075383894 -0.01635896 -0.03736285 -0.020044446 0.022814382 0.023491058 0.03586534 0.012184907 -0.01664158 0.024455998 0.034794834 0.017783117 0.032015193 0.025850724 -0.04057877 -0.023318946 -0.040492248 0.047062192 -0.036099505 0.008401394 0.042982314 0.03177538 -0.02280028 -0.010765027 -0.027899135 0.042035464 0.04749414 0.049040828 0.0139384605 0.00085889176 -0.028413499 0.0149871 -0.019745803 -0.04513154 0.01127968 0.0036295056 -0.045146644 0.018398393 -0.024910415 0.004090082 -0.02928481 0.044579055 -0.00038009882 0.007235229 0.045747247 0.008647453 -0.025412237 0.009134602 0.0052543767 -0.03131807 0.016990665 -0.028634012 -0.04432377 0.007353902 -0.0412995 0.030236337 0.033124495 -0.046664786 -0.032513335 -0.042417195 -0.019808877 0.02552111 -0.011851765 0.037917886
number 0.02747405 0.031225886 -0.016211092 0.043276403 0.0076923966 -0.049513854 0.027981583 -0.024248386 0.012242936 0.040776502 0.01816589 -0.0029832125 0.011398591 -0.015625201 0.018122938 -0.037881505 0.043583225 0.0023539662 0.0039292797 -0.0015416257 0.045003723 -0.04095584 -0.049116958 0.046319712 0.036226477 -0.027987171 -0.001285363 -0.041831233 -0.044497754 0.034427848 -0.042568624 -0.03144779 0.004346393 0.026121441 0.03563721 -0.047129095 -0.02964188 -0.006409727 0.011935521 0.020363342 0.049506698 0.012106132 -0.023619939 0.015381444 -0.0006775148 0.044043902 -0.016452588 -0.005613912 -0.027677143 0.006386876 0.03530928 -0.00012410805 0.019316401 -0.035247874 0.009462904 0.030552398 -0.039904844 0.04483379 -0.028783573 0.03002404 -0.03957926 -0.04566593 0.02276237 -0.02489984 -0.02743863 0.011937477 0.036368225 -0.031175232 -0.04058194 -0.0039649494 -0.004333269 0.027502846 -0.02632842 -0.035400473 0.040907297 0.03900783 -0.013784684 -0.017574955 -0.040529262 -0.03751745 -0.03108406 0.029448416 0.015887309 0.024728242 0.02040172 0.014431324 0.044040155 -0.0120136365 -0.03501401 -0.004182756 0.04434054 -0.028220547 0.011675108 0.04422922 -0.0006766096 0.0018237121 -0.019677628 -0.045245994 0.006444264 -0.023512399
2 -0.04125061 0.045449246 -0.046035316 -0.012285627 -0.011782598 0.0002024062 0.0118576065 -0.022289848 -0.045459975 0.025372032 0.04626168 0.04542606 0.014971804 -0.008177161 -0.031734336 0.045263637 0.0012412779 0.019908618 0.019785408 -0.0069087036 -0.0074330457 0.014227632 0.01558483 -0.018095028 -0.0075317025 0.046269987 -0.032651976 -0.009361289 0.027302574 0.024970125 0.03670465 0.023237515 -0.03816531 0.00028840452 0.013459172 0.001603175 -0.009213962 0.014333952 -0.035601735 -0.04536393 -0.04149034 -0.012799658 0.027105812 -0.021282101 0.043022323 0.02800021 -0.023145879 0.02537227 -0.008387674 -0.015437078 -0.024345888 0.040445436 0.030987669 0.011677362 0.039920617 -0.04114144 0.025028255 0.023174193 -0.0033855066 -3.387779e-05 -0.04263705 0.04204539 0.023778882 -0.004497301 0.010686077 -0.0030883774 0.028300453 -0.03493501 0.037927438 0.0005694516 -0.017735444 -0.04428618 0.03771552 -0.0063216686 0.022035372 -0.04646914 -0.013302922 -0.03719709 0.008425105 -0.02200296 -0.041814733 0.0066238157 -0.040184557 0.039894346 0.025113847 0.037161026 0.03933755 -0.009763647 -0.020610416 -0.020195877 -0.04034984 -0.044720042 0.02435347 -0.012134172 -0.009118713 0.021259215 -0.021359563 0.016592216 -0.026832605 0.03535415
speed 0.00469359 -0.03530959 -0.018937051 -0.046807326 -0.04070089 -0.04261787 -0.038208425 0.022228766 0.0015465617 -0.020269597 -0.025225103 -0.046085358 -0.010763787 -0.0118886605 -0.019674754 -0.013206899 -0.04722153 0.010971714 0.03498945 0.031194236 0.031831432 0.040048826 0.020302724 -0.0038770214 -0.009559371 -0.03339045 0.02345756 -0.033990994 0.01448312 -0.039504874 0.017334547 0.0025956407 -0.009737134 0.0028112642 0.002148807 -0.036035646 -0.031834245 -0.0081632845 -0.005963076 -0.038847636 -0.0015157349 -0.04109192 0.04823393 -0.049060464 -0.04986296 -0.013471078 -0.030867005 -0.030337607 0.01350284 0.047860812 -0.0034167059 -0.04321785 -0.0013270155 -0.0421229 0.013739828 0.01742008 -0.015458405 0.009841166 0.017998781 0.0055083632 -0.016224481 0.0023275726 -0.025500393 -0.012641143 -0.028333737 0.048916902 -0.0070101023 0.022983123 -0.037361942 -0.003822945 0.03396872 0.014583323 -0.0054338574 0.025765885 -0.022611333 0.031430233 -0.017161667 -0.016125202 -0.015093721 0.004535366 0.035270024 0.00259595 -0.040408634 -0.0074100606 -0.03030466 0.011054385 -0.033681177 -0.030537773 0.03006779 0.0014987215 -0.0011028424 0.0127174 -0.014489867 -0.009519242 -0.04609045 -0.036233746 -0.049794793 0.03386501 0.04145832 -0.022671307
an -0.03165797 0.036502156 -0.011799239 -0.04712477 9.2983246e-05 -0.018835485 0.04829618 0.040925387 -0.012096632 -0.029424775 -0.01775838 0.02129097 -0.03461746 0.03323623 -0.00766474 0.0013189092 -0.029775454 -0.03829523 0.041172627 -0.028175175 -0.013201941 -0.012694132 0.012872469 -0.0067247152 -0.023021674 -0.04512719 0.029046025 -0.011281479 -0.005375851 0.045784783 -0.043673526 0.0021763556 -0.033668734 -0.03560866 -0.014279045 -0.011248361 -0.039059542 0.038780037 0.024372447 0.03652141 0.03469998 0.0156193115 0.045445953 -0.03211434 0.025674332 0.013279628 -0.014057934 0.012614612 0.023307014 -0.02019397 0.037095454 0.018519852 -0.0248433 -0.030441035 0.0037398823 -0.017015446 0.010055698 -0.037067354 0.041915122 0.0378598 0.003435038 0.04236299 0.038762894 0.012665536 0.02597401 -0.042690195 -0.0019826293 0.047718946 -0.01978668 0.007717788 -0.01404183 -0.042673614 0.0012758151 -0.01875546 -0.025438441 0.01502173 0.040603925 -0.014611293 -0.017189514 0.016625497 0.01646955 -0.04803405 0.04230832 -0.016583286 0.03618938 -0.042234518 0.0067328103 -0.005402457 -0.025228048 0.0030265339 -0.008664966 -0.03484895 -0.012549948 -0.046158075 0.01182593 -0.021096993 -0.0032135956 -0.021910537 -0.03620241 0.044450317
important 0.0051180124 0.036319163 -0.021462834 0.0059584267 0.027105663 -0.045679606 -0.02758199 -0.025738979 0.019725773 -0.019158674 0.035925154 0.031112377 -0.021771682 0.015443657 0.009486474 -0.048936438 0.047108177 -0.04076345 0.010175586 -0.025284743 -0.013005495 0.043117527 -0.021266986 -0.022978341 0.017658535 0.046299804 -0.027391529 0.01310635 0.0021751635 0.017667975 -0.031155873 0.023879182 -0.0074480996 -0.009549998 -0.036879767 -0.04047655 0.015508059 -0.026654541 -0.022353578 0.027137522 -0.013653852 -0.031052137 0.03973521 0.028636899 -0.032728016 0.0058352128 0.011038862 -0.018046536 0.03012285 0.03497872 0.0011749044 -0.026420092 -0.019788397 -0.047911692 0.03738955 -0.03143512 0.0004697442 -0.025475277 0.02068286 -0.038351726 0.020626929 -0.01658057 0.020298515 -0.01481377 0.017000321 0.0022427551 -0.0469231 0.016514886 0.025343705 0.04708847 -0.019745255 0.03337672 0.027475212 0.0151616 -0.014819551 0.022114348 0.0025165677 0.014482681 0.038124394 0.00015806034 -0.042280197 0.035185922 0.021203343 0.023040678 0.046236757 -0.0051854737 -0.0060422197 -0.011808801 0.003872253 -0.03293084 0.036743786 0.047267582 -0.011275731 0.015219953 0.0252623 0.02712902 -0.04594425 0.0361689 0.01677103 0.019872162
point -0.024822116 -0.010504961 0.041423287 -0.009769987 -0.009112634 0.02101611 -0.031197583 -0.030043185 -0.006413378 -0.04842324 0.044291664 -0.012368679 0.022589695 0.005529154 -0.0025150403 -0.030032242 -0.018346786 0.04820906 -0.010928202 -0.019380987 -0.013328053 0.032584976 0.04874749 0.02912322 0.029272784 0.020646524 -0.03801732 0.028187882 -0.015048038 0.04474889 0.028943542 -0.045978904 -0.009699322 0.045549456 -0.04507147 0.022574369 0.021381762 -0.04608792 0.019977797 0.01147709 0.010127556 0.034611974 0.037719216 0.016094062 0.0074478164 -0.047158446 0.018827107 0.012589488 -0.019617427 0.027420793 -0.006175507 -0.004204143 -0.036360312 -0.027413154 -0.013597179 -0.035511278 0.013641063 0.024473753 -0.04648124 0.028587412 0.023659263 0.01812056 -0.03533957 0.010867525 -0.01804825 0.031899367 -0.033997335 -0.0069197416 0.010718681 -0.030679096 0.0091318 0.014016759 0.048063125 -0.046857107 0.026550543 -0.04686284 0.012329865 0.033583473 0.030903969 -0.02305348 0.04539943 0.03176621 -0.040677857 -0.028912902 0.010082673 -0.017540358 -0.014792491 -0.046129085 0.04516757 -0.008169077 0.013183523 0.01786853 0.028727341 0.014943253 -0.046432864 0.045479644 -0.006662391 -0.012852717 -0.04245018 -0.007918369
difference -0.007812597 0.048499737 -0.04127971 0.016217086 -0.0028134473 -0.040059924 -0.021485675 -0.012992181 -0.033699322 0.047545258 -0.03752297 0.04155645 0.037703004 -0.017108463 -0.027998889 -0.021267606 0.03693484 0.03435724 -0.01888584 -0.02126274 -0.04599264 -0.0064271465 0.036423516 -0.008085273 0.04807328 -0.04063306 0.025757957 -0.015422653 -0.029265558 -0.027588129 0.0044625625 -0.010865904 -0.0145611055 -0.035196267 -0.010454871 -0.04761045 -0.033036493 0.021097388 -0.024850428 0.031540547 -0.03756156 0.015293721 -0.028694404 -0.0483506 0.008571576 -0.022021806 0.00021652132 -0.04724138 0.02038623 -0.010773085 0.04054982 0.0005253926 -0.00705681 -0.026720835 0.020152617 -0.016936649 -0.0426265 0.01976036 -0.018096317 -0.035941184 0.007374633 -0.015011419 -0.0058530085 0.008153237 -0.036815964 0.038104426 -0.046171296 0.012501571 -0.023893332 0.041498993 0.048781905 0.023676727 -0.026678657 -0.045619022 0.04759374 -0.008931614 0.04883123 0.039889347 -0.04249866 -0.049457885 -0.04625039 0.013253305 0.028904807 -0.017465211 -0.0031721704 -0.0046888813 0.0053464174 -0.045666613 0.013641838 3.046915e-05 0.016177762 -0.02851826 -0.0013201348 0.036754955 0.016329277 -0.017516494 0.029070292 -0.022950506 -0.0054387674 -0.038137637
two 0.03839029 0.00435574 -0.01927588 0.042362224 0.010529816 0.00034074858 0.017267276 -0.0164948 0.04770608 0.031405557 -0.030161774 -0.023022497 0.034691695 0.021193754 -0.004517056 -0.035851575 0.027378988 -0.0044046156 -0.03579825 0.010393452 -0.006254006 -0.016488254 -0.03961278 0.03997275 -0.04731239 -0.007259667 -0.037420344 -0.0138142705 -0.025090469 0.03449848 -0.0056997426 -0.015598536 0.044924263 -0.04924611 0.0053853877 0.016904067 -0.04780947 0.016889166 -0.015884914 -0.03269968 0.023789417 0.045920577 -0.006401956 -0.013731182 -0.032492533 -0.018046629 -0.011780214 0.027698625 -0.04244001 0.024595212 0.027691934 0.04545519 -0.037066568 0.028490972 -0.048770357 -0.045613874 0.027957086 0.01960292 0.020820681 0.008172929 -0.038916945 -0.049153365 0.037721466 0.0018483177 0.03177533 0.017530624 0.01765031 -0.048209738 -0.013093412 -0.019375598 0.03287513 -0.038228225 -0.016699053 -0.02511183 -0.015218247 0.046366144 -0.030442167 0.008877646 0.022775497 -0.0065250993 -0.014344703 0.029626522 0.028824162 -0.029792035 0.009718526 0.006541528 0.010497738 -0.025705457 0.028981756 0.020291653 -0.021207118 0.012398433 0.029088069 -0.0061183944 0.0035646558 0.03248736 -0.012431849 0.012082219 0.048481707 0.0423774
has -0.041195095 -0.0069947615 -0.0051606297 -0.020751417 -0.007042635 0.0401302 0.037515376 -0.018064987 0.03770293 -0.015874337 -0.048171975 -0.048601974 0.02477945 -0.013517238 0.04091474 0.04752371 -0.04132811 0.029740404 0.03163183 0.031490948 0.04774941 -0.023341393 -0.027823139 -0.018122364 -0.004283048 0.026446294 -0.023433793 0.03820579 -0.02327013 0.024764124 -0.026893128 -0.025357498 0.0008506775 0.048057903 0.0074488036 -0.00030288845 0.02218065 -0.000716079 0.021512654 0.048736665 -0.033881962 0.008163907 0.012015961 -0.0203099 -0.0270993 -0.012250651 0.020274427 0.012328051 0.049793806 -0.038127434 0.02034029 -0.0085604675 -0.015122868 -0.04517573 0.008207381 0.03543159 0.044999365 -6.548315e-05 -0.044036698 -0.03686775 0.028130654 -0.031874515 -0.04668344 -0.049682774 0.04334498 -0.0056838766 0.04904307 0.0289721 0.045955468 0.00067211315 0.02611586 0.015552055 -0.027286947 -0.04337236 -0.037365306 0.002048336 0.03375559 0.010275148 0.008444428 -0.01644218 -0.027936662 0.04698727 -0.017282654 0.021517124 -0.034393646 -0.042245116 -0.022493994 0.001151897 0.01745398 -0.029995978 -0.0031995997 -0.045160282 -0.004524626 -0.008520186 -0.039364062 0.02540673 -0.019863034 0.03272016 0.015037503 0.024606135
median 0.03431573 0.010058533 -0.014061641 0.03047837 0.017685894 -0.02141341 0.018735383 -0.033247255 0.022466723 -0.032124482 0.022421252 -0.02929237 0.011419009 -0.04025062 0.036322486 0.0057981126 0.037402954 -0.029432153 0.009460926 0.04999454 0.02705698 -0.03401663 0.043472197 0.035616804 -0.0077241063 -0.017885555 0.007971965 0.0088049285 -0.0008758418 0.036293004 0.02091514 -0.017166793 0.031990435 0.022051666 -0.048424136 -0.04316337 0.0038548335 -0.029635703 0.006077908 0.03519926 0.04809684 -0.042476203 -0.049228705 0.031121481 -0.046857465 -0.040412795 0.03570124 -0.049938202 -0.027800405 0.014990259 -0.034790777 0.00920571 -0.00086344406 0.04990271 0.023755316 0.010924686 -0.032417774 -0.030964946 0.027296793 -0.016621985 0.017863367 0.0061537996 0.0005450472 0.030540977 0.037796084 -0.022365212 0.04600961 0.040469144 -0.015880048 -0.015718661 0.028983343 0.01441003 0.026497457 -0.029840088 -0.007058561 0.049288932 -0.014859833 0.017157946 -0.046459164 0.01114453 -0.04570446 -0.017020881 0.03399417 0.047412705 0.00022713095 0.043986965 -0.035559844 0.03965572 0.040085163 -0.023839498 -0.01821344 -0.04050094 -0.034393597 -0.033332456 0.017040763 0.005700171 -0.008516468 0.016210224 0.019647453 -0.015838765
incubation -0.001005888 0.027355697 -0.025285482 0.019633267 0.009702183 -0.013322197 -0.027811527 0.024807286 -0.009749033 -0.024586393 0.03236014 -0.03134092 -0.049922537 -0.013063036 0.039859246 0.010645546 -0.03161645 -0.007340621 0.021667328 0.022107605 -0.043816376 0.013763357 -0.033682644 -0.023789143 0.038567808 0.015615415 -0.04774108 0.0040890686 0.019943047 0.0454646 -0.011418797 0.03225131 0.011795331 -0.0021973476 -0.045949258 -0.032703303 0.01638874 -0.02683494 -0.03807645 0.014844481 -0.01065563 -0.023581088 0.04296026 -0.027434945 -0.017554771 -0.043312576 -0.007484544 -0.017679334 0.009055186 -0.04239049 0.04065791 -0.023169124 -0.03776119 -0.03793304 0.04077133 -0.046263684 -0.04320041 0.027704086 -0.0334545 0.03469744 -0.01795479 -0.041570686 0.027364444 0.0047779568 -0.02488072 0.007909667 -0.047082137 -0.034525704 0.03073467 0.015921447 -0.018588744 0.04333612 0.030137662 -0.014134277 -0.0041139834 0.037210885 -0.023387074 -0.026330506 0.031239878 0.035166685 0.033274163 0.009944152 -0.0008174889 -0.005161464 -0.023426866 -0.037152052 -0.017207645 0.03157499 0.033615474 0.0058551803 -0.036050677 0.048631106 -0.017973173 0.033369783 -0.0117427 -0.0035241134 -0.04947405 -0.03687669 -0.026091218 0.0473261
period -0.017748952 -0.0020576604 0.021952283 0.014357295 -0.02387519 -0.01889111 -0.027400708 0.019291427 0.0070721507 0.033256304 0.03360397 0.041832153 -0.014091421 0.026123945 -0.048400916 -0.03681494 0.0038608797 -0.025119985 -0.022972608 0.031160299 0.04413266 -0.043618202 0.046437774 -0.033083607 0.045034554 -0.01186372 -0.02500986 0.036811505 0.028336573 0.0057162642 0.024967555 -0.037874795 0.0013487339 -0.040965807 0.04865307 0.0475162 -0.00025308132 0.0345144 0.0025371797 0.0453688 0.016876351 -0.0037693009 0.030770306 -0.009988308 -0.044674434 -0.04345541 0.048841346 0.013333928 0.02573732 -0.028413225 -0.041755807 0.032571126 0.0057551973 0.023568701 0.034070525 -0.047630157 -0.045302298 -0.01576195 0.04781289 -0.0029146299 -0.04074218 -0.0077684633 0.024161723 -0.030886114 0.0020223036 -0.043005683 -0.02036506 -0.0030347817 -0.01459793 -0.02168125 0.049206767 0.036294494 0.03886563 -0.00317695 0.02106445 -0.0014577992 -0.026666416 -0.00906086 0.031701516 0.024097156 0.016610716 -0.047448244 0.046745013 0.024628568 -0.03546486 -0.018866409 -0.0016553998 -0.008342646 0.03917003 0.00018981844 -0.04697732 -0.036666013 0.01078422 -0.029675508 -0.041145504 -0.016012765 0.038247693 0.019076396 -0.048298325 -0.036508262
infection 0.0032246597 -0.0153972395 0.03420938 0.033963133 -0.037502624 -0.04466138 -0.04375843 -0.036891032 -0.0014208555 0.019226257 0.017748069 -0.020861877 -0.0115087405 0.0057499297 -0.0013782382 0.04324988 -0.04426055 0.021788988 0.0037689582 0.03175075 0.006964706 0.03572936 -0.023606753 0.027871612 -0.045908224 -0.0074616075 0.0008578189 0.008866549 0.027177874 -0.00030033663 -0.0003432855 0.0346794 0.005612958 0.021034766 -0.04956261 0.0021938458 -0.031568527 0.045974586 -0.04387913 -0.048903145 0.038622383 0.017114077 -0.019772947 -0.047641397 0.04730458 -0.018720854 -0.049438607 -0.022712661 0.041180108 0.0109488 0.0023181438 -0.0046353713 -0.026753247 0.04274461 -0.036836874 0.020920884 -0.028606713 0.029949214 0.043225635 -0.047436308 -0.03263718 0.020440806 0.015443329 0.04385451 -0.015775882 -0.04107169 0.027236927 0.03891139 0.014054332 -0.032155313 0.006173454 0.031332944 -0.046661805 0.036667135 0.047957208 -0.013701402 0.0074431673 -0.04394138 -0.023260558 -0.040004097 0.013997581 -0.0003996119 -0.0013363846 0.0069045313 0.038501885 0.010937609 0.04233021 0.03990597 -0.013510238 0.045005705 0.049638998 0.022635821 0.024296131 -0.04053838 0.025050763 -0.021646583 -0.021409357 -0.011183284 -0.015357554 0.023544695
successive 0.020429302 -0.024773825 0.0129366405 0.0026111715 -0.04814407 0.009423353 -0.04880425 -0.0389238 -0.010917984 0.019877288 -0.011252772 -0.003263425 0.0094847195 0.024850521 0.019603614 0.025257614 -0.025422012 0.010826565 0.03913332 -0.0028671734 -0.025233567 -0.020316398 -0.041783296 -0.0455369 0.010378815 0.009253442 0.017380107 -0.039211918 -0.017831348 0.013826672 -0.039678417 0.033837367 -0.0036783926 0.0411531 0.026553426 0.008153271 -0.019800616 -0.046949055 -0.02264309 0.029016066 0.028416727 -0.028443694 0.020989422 0.041250695 -0.008081485 -0.017812334 0.04273231 -0.03983275 0.007776618 -0.0066887364 -0.0348501 0.029069733 -0.026219059 0.012810972 -0.003967095 -0.045360375 -0.047549438 0.018719915 0.0359965 0.008362077 0.015098501 -0.0049370416 -0.010532938 -0.031815507 0.046639625 -0.025913585 -0.00090115145 -0.028821195 0.025816526 0.04308218 -0.03902507 0.00892682 -0.005397655 -0.001406204 -0.005329538 -0.03986633 -0.045833565 -0.009959541 -0.032707468 -0.019851089 -0.048540663 0.044232313 0.03141233 -0.04352477 -0.0126458295 -0.03770559 -0.03658086 0.04245006 -0.047794115 0.036821153 -0.027335156 0.021346424 0.013982464 0.036982883 0.0076026917 -0.022959722 0.012323547 0.036897767 0.030747678 0.009234834
cases -0.023606325 0.022712793 0.03376658 0.003841482 -0.037602674 0.044461403 -0.010894667 -0.038631774 -0.0015847571 0.035941456 0.027448703 0.04512168 -0.021432638 0.0149340965 -0.044007994 -0.0393733 -0.0015270598 -0.0038638227 0.042465057 -0.045480717 -0.043820858 -0.049129702 0.044005487 -0.02687105 -0.024386121 -0.046424985 0.019614045 -0.0022979863 -0.00918461 0.0067002065 0.04735272 0.03988898 0.024120066 0.017588008 0.045125637 0.019686032 0.023939978 -0.01432674 -0.014682602 -0.049219646 0.0006961338 0.046065416 -0.01938559 -0.028256357 0.040101457 0.0054807886 0.049299326 0.039280985 0.002860058 -0.009560384 -0.02325933 0.0032090433 -0.014281642 0.028770637 -0.003321994 -0.0036085136 0.009425722 0.020701256 0.039410304 0.006682791 0.004279174 -0.038873255 0.031837117 -0.0006117448 -0.03859769 0.041533593 -0.029026473 0.017575886 0.0059890747 0.023109797 -0.030317903 0.020418074 -0.021322895 0.021481145 0.0103516355 0.048320834 0.04975302 -0.033701994 0.018219475 -0.026745891 0.036544252 0.02906276 -0.023914445 -0.024210835 0.026297022 0.007894196 -0.033163656 0.0037954561 -0.0059581883 0.021247495 -0.04856051 -0.034733843 -0.021192146 -0.019589042 0.0039793365 0.028862882 -0.010257494 0.045187283 0.003764011 -0.011281572
estimated -0.025932586 -0.027301623 0.022773508 0.027455118 0.0096264705 -0.01561705 0.015802156 0.026963208 -0.03723339 0.033930507 0.02041575 0.014988486 -0.02813902 0.01292095 0.0014949329 -0.033570014 -0.0047037713 -0.022772027 -0.038647115 0.036422763 0.031267513 0.006331492 0.040386226 0.023370374 -0.0015593767 -0.0015268922 0.016096938 -0.010442078 0.028323982 0.02745409 0.0386448 0.010467507 -0.031039739 -0.032830466 -0.016652834 -0.019650519 -0.005191695 -0.00965178 -0.009082854 -0.006986141 -0.032920323 0.024974559 0.032062378 0.012144066 0.004520558 -0.0068253167 0.021308009 0.00043795258 -0.0041935816 0.030792985 0.041875567 -0.04454763 0.008412994 -0.013504386 0.01086688 0.047502015 0.028572764 0.0009832494 0.02987447 0.041201357 0.045473408 0.013934221 0.019726265 0.027449641 -0.045482922 0.024038006 -0.012543716 -0.015417468 0.0011727326 0.020935025 -0.012688745 0.040363993 0.049857628 0.046959165 -0.04534593 0.0049205646 -0.036992956 0.01381949 -0.04686768 0.048165035 -0.028095042 0.0069851503 0.010342907 -0.0044179074 0.044186797 0.014541123 -0.0320936 -0.021049453 0.0440001 0.021390293 0.022188876 -0.015615761 0.040690567 -0.0035400763 0.042463932 0.029539827 0.022750285 -0.03876213 -0.0371959 0.040444706
6 -0.0032372586 -0.0018030293 0.007304311 -0.038872622 0.00426675 -0.011685479 -0.04634733 0.031344388 -0.0094049685 0.029624414 -0.0114809275 -0.041563712 0.010413684 -0.009643041 0.023420665 -0.033362232 0.0066876523 0.026348237 -0.017134108 0.03329524 -0.022284353 0.00684724 -0.0181414 -0.019091213 0.02221806 -0.035488952 -0.044246066 -0.03071624 -0.0081267245 0.021697346 0.017027628 -0.03581973 -0.039534412 0.0091452 -0.038915277 -0.0155974515 -0.012531243 -0.020706773 0.03101908 -0.008325528 0.023293082 -0.04452126 0.009259999 0.045947503 0.016044948 0.0050977357 0.01698066 -0.021474732 -0.00083034113 -0.010080375 0.023405526 -0.048961796 0.026722815 0.036338355 -0.026971925 0.038834665 0.021628287 -0.03164903 -0.04127748 0.017116714 -0.04554689 0.019910064 -0.028658926 0.04375906 0.035827246 -0.025342166 0.0071858875 0.011941291 0.031652357 0.040280197 0.043836165 -0.010891162 0.041243885 0.015710581 -0.045620836 -0.039167143 -0.043516424 0.04114366 -0.042170037 0.03970894 -0.017856121 -0.042697966 -0.0044028647 -0.021892572 -0.033109404 -0.049948573 -0.021078968 0.04966012 -0.028715884 -0.043583203 -0.007682942 -0.038282525 0.0041972026 0.04007903 -0.044487454 -0.011308096 0.034294914 -0.026458574 0.047016528 -0.01596304
means -0.0054162256 -0.043866433 0.012663994 -0.009576689 0.00239148 0.042318333 -0.029768754 -0.0033796206 -0.043102767 -0.026767075 0.022883546 -0.009832703 0.00414424 -0.022678435 0.046787504 0.008075584 -0.042521335 0.045007836 -0.038654126 -0.009642947 0.030473981 -0.004174184 -0.03903828 -0.037747085 -0.0477368 0.0020308383 -0.04291278 0.047036115 0.03184017 -0.0072356462 -0.030979885 0.01878551 0.0078475475 -0.021804167 0.032614876 -0.035774864 -0.002986718 0.017158005 -0.016503356 0.018149782 -0.047287345 0.035614755 -0.0008444786 -0.0057643764 -0.045130756 -0.03491894 0.039763514 0.011336207 0.013911512 -0.019429637 0.012627173 0.015280034 0.022595432 0.045926902 -0.02353145 -0.011401176 -0.04047358 -0.033873096 0.01469085 0.017839279 0.018370155 -0.043973934 -0.029967893 0.03205767 -0.03582387 0.037471976 0.037246633 -0.0073541515 -0.0036817677 -0.0104876645 -0.04506159 -0.029124236 -0.02120546 0.020746563 -0.0095026605 0.012946758 0.017403174 -0.0124249235 -0.018915797 0.047870945 0.040441085 0.008557282 0.0013126619 0.049121704 -0.037828363 0.018336963 0.019166771 -0.014899623 -0.023687875 0.048936274 -0.010612689 -0.0068715587 0.04240909 -0.019845594 -0.02196747 -0.046724807 -0.025732363 -0.04043592 0.018921558 -0.042954482
spread -0.03668152 -0.04365599 0.010006964 0.03383592 0.04461838 0.022897828 -0.006357204 0.03142612 -0.034921385 0.002583705 0.01609293 -0.039649237 0.027390849 -0.023010159 0.037610125 0.029626217 -0.006844353 0.0427962 -0.005664982 -0.04835261 -0.041335285 -0.019936813 -0.016779818 0.032636534 -0.031582534 0.01558641 -0.021907603 0.03575546 -0.028271247 -0.023236895 -0.028313328 -0.022016658 0.026813079 0.04016638 -0.042144857 0.041173074 -0.02812518 0.040085707 -0.034003306 -0.020050157 0.008957457 -0.021327628 0.046000335 0.045791987 -0.0060448274 -0.044346463 -0.040032614 -0.025965024 0.026224378 -0.02760209 0.027233724 0.049213756 -0.046830356 -0.037680924 -0.00712068 -0.030945802 0.048954856 0.004762985 -0.037051715 0.049928162 -0.01748266 -0.037604284 -0.001906883 -0.00584545 -0.006968189 0.026391935 0.001875449 0.047863986 0.011919655 -0.046813037 -0.02661717 -0.021421695 -0.006340541 -0.0014269836 0.025791373 0.043388713 0.041199747 -0.024639701 0.0067489743 -0.035283756 0.032682944 0.040010665 0.01797143 -0.03815918 0.0011250749 0.029428724 -0.010304034 -0.026789809 0.039577547 -0.04024577 0.0005990863 -0.013364531 0.00516627 -0.0025516264 0.044423487 -0.015996348 0.006985426 -0.026686156 0.036680374 0.019615714
faster 0.025241684 -0.04477955 -0.04073155 -0.028006256 0.0075997934 0.037473712 0.027718153 -0.049089957 -0.025339425 3.5535544e-05 0.04929057 0.02888674 -0.019067038 0.0054209717 0.0040146112 -0.016429603 -0.03461069 -0.02148403 0.015409019 0.023463 0.022911135 -0.008736122 -0.024965143 0.045819033 0.028488208 -0.008283425 -0.015227199 -0.038216494 -0.024983227 -0.048150636 -0.015925694 -0.04029181 0.04835434 0.0018957742 0.029026877 -0.02502631 0.02280369 0.017687846 -0.021868456 -0.0078096874 0.0064087138 -0.014613889 -0.025460219 0.035449136 -0.026610529 -0.016274463 0.026802432 -0.026037788 -0.016147077 -0.032620452 -0.01000471 0.0027073622 0.0448195 0.049456965 0.04857223 0.04944657 1.2002885e-05 0.018234123 0.02308074 -0.043554127 -0.013084114 0.02362061 0.019686375 0.029534984 -0.03852154 0.005387068 0.048365224 0.0044472218 -0.022769606 -0.04584488 -0.020416845 0.006975554 -0.026584877 0.011737622 -0.0014911182 0.018630218 -0.019897545 0.015338097 0.048279095 -0.018781269 -0.017699279 -0.017904855 -0.0017291531 0.029569697 0.0068269745 -0.02812915 0.031370413 0.03671876 -0.0145605095 -0.0017187595 -0.038147103 0.028554354 -0.008572161 -0.015942775 -0.026948487 0.014807094 0.022631098 0.014443304 -0.03295367 -0.0055309907
further 0.021293785 0.02461214 -0.016753305 -0.018228758 0.04118607 -0.0051013716 0.04487968 0.013629962 -0.048289586 -0.013218582 -0.013990689 -0.041365422 -0.040982258 0.019161057 -0.024181629 -0.039399862 -0.016608905 0.015954722 -0.0036420822 0.022509765 0.034868207 -0.016992368 -0.044160224 -0.031001711 -0.015670218 -0.046485353 -0.015582658 0.01890688 0.012423597 0.038791332 0.024287153 -0.036668323 0.03906549 -0.0098748915 -0.019824076 0.04360077 0.015477363 0.0283877 -0.010225676 0.026209895 -0.03877437 0.00584054 0.029229116 0.034700666 0.0031876564 -0.0005751252 0.006719481 0.019492615 0.025571529 -0.022831619 0.021519098 0.048994336 -0.013321519 -0.032226562 -0.044857632 -0.041088425 0.013306644 -0.010104202 -0.034783445 0.04481179 0.04989953 0.007112574 -0.025388945 -0.026950097 -0.0147282705 0.04060599 0.0020793192 -0.030899739 -0.043873858 -0.034780312 -0.031741 0.0013158917 -0.032537807 0.032088254 0.027704451 0.039482262 -0.049644887 -0.012297116 -0.00974232 0.0011585727 -0.01903317 0.015297178 -0.038004614 0.015021574 -0.04437219 -0.013079084 0.035416093 0.034740414 0.04064549 -0.04492377 0.042901147 -0.0019123331 0.034469996 -0.017517377 0.035760414 0.027577508 -0.00048202276 -0.020349229 -0.011185776 -0.028293848
first -0.027958179 -0.04697728 -0.0037142746 0.0180086 -0.017831028 -0.02843802 -0.0067662485 -0.009999324 -0.046235062 -0.014423132 -0.029267514 -0.015001822 -0.00017526001 0.010553755 0.02820636 -0.0069532506 -0.014926337 -0.03273888 0.014034476 0.018038455 -0.030094994 0.006438412 -0.014420699 0.0065361485 0.045068894 -0.013788901 0.030274 0.038453523 0.028892849 -0.039188694 -0.015614618 -0.037070263 0.038947407 -0.023343062 -0.018306054 0.03391998 0.030054424 0.007724773 0.021798398 0.04335865 -0.0007007234 -0.03276824 0.00042389706 -0.005462516 -0.013388228 -0.029572641 -0.026944114 -0.0025314912 -0.0042972453 0.042784464 0.025744412 0.042589832 -0.0274619 -0.038159538 0.0060710907 -0.0059080943 0.017770771 0.031008448 -0.04726384 0.029681135 -0.024265528 0.010752462 0.017550815 -0.04190601 0.028507259 0.03931122 -0.04080237 -0.035529137 -0.03835224 -0.035996605 0.03691787 0.030468527 0.013447177 -0.041187964 -0.0188061 0.022453558 -0.041501798 0.024120305 -0.04898567 0.023912672 0.028036524 0.04551542 0.02303468 -0.008180462 0.01183169 -0.042593062 0.008531857 0.032389153 -0.045303762 -0.0017018318 -0.0075819977 0.036088537 -0.002107583 -0.011240207 -0.048018444 0.047189105 0.021961343 -0.0054764636 0.026863877 -0.03795713
illness 0.01655138 0.035901908 -0.013040733 -0.04852158 0.04898161 -0.038601696 0.028981153 0.030865025 -0.014444124 0.04187535 -0.04582814 -0.046922803 -0.039589606 -0.041202057 0.033131626 -0.006549824 0.0035532117 -0.010808684 0.025792722 0.009818353 -0.020772671 0.029679943 0.0404601 -0.039010596 -0.008548595 -0.0370556 -0.036667455 0.0019702092 0.011700582 -0.013745964 -0.021256745 0.006767191 0.0057796612 0.010813452 0.020603012 -0.00016523525 0.016622331 0.013699297 -0.04000653 0.018091869 -0.00060718134 0.049133327 -0.025143921 0.03369764 -0.04028078 0.03751788 0.0064152367 0.042619754 -0.008216776 0.005406022 0.008860756 -0.018394269 -0.029917443 0.048547495 0.00011403486 -0.04443091 -0.04664371 0.04354019 0.039253596 -0.0060739517 -0.0109145045 -0.043475594 -0.042453386 -0.0046587586 0.003707923 0.0041231625 -0.03357166 -0.02840004 0.010285474 -0.045111824 0.049970176 0.02556732 0.005076181 0.034034256 0.01965798 -0.014159881 0.0049560443 0.015354488 -0.036396753 -0.03506466 -0.01841756 0.00857947 -0.047690094 -0.030241728 0.0052757487 -0.0071027502 0.04713067 0.03711364 -0.004789911 -0.037777077 -0.03299438 0.0488392 0.0061311126 0.0006706007 0.030875493 -0.030250002 0.041999523 -0.029266477 0.04981346 -0.015141964
or 0.040898804 -0.004730832 -0.023109829 -0.044791747 0.045306075 -0.026114857 -0.011365473 0.015420649 0.037964884 0.0442886 0.036223177 -0.0073061585 -0.0061874166 0.0030014627 0.025373552 -0.008790445 0.023391295 0.028283719 0.023568261 -0.04655943 0.008834768 -0.0452093 -0.031759977 0.040448677 0.03392339 0.037428048 -0.030821277 0.03382119 -0.023865795 -0.024343824 0.02322184 0.026345279 0.045249235 0.03763291 -0.016189873 0.041427944 -0.044178843 0.03722844 -0.025370205 0.010771476 -0.027243054 -0.045662414 0.028451566 -0.011756647 -0.041113652 0.024110463 0.0019992478 -0.03707671 -0.032784246 0.011220954 -0.046016634 0.041937266 -0.0070770495 -0.009479545 -0.015905462 -0.025991226 -0.02931943 0.0053849816 0.012775723 -0.049713828 -0.04753522 0.015936699 0.007973492 -0.0371482 0.048978124 0.020425785 -0.032414366 -0.029033793 0.023106407 -0.03728894 0.024543907 0.013057295 0.021020856 -0.027249707 -0.039197635 -0.025738252 0.04248451 0.028488051 0.014765348 0.013619948 -0.007479571 -0.046624828 -0.0129342675 0.02553114 0.04015914 0.036830667 0.020869877 0.030018661 0.029947553 0.03966595 0.013321806 0.03760617 -0.0065510385 0.025187556 0.011614919 0.015775982 0.040353958 -0.018908942 -0.04838003 0.027034823
potentially 0.045411076 -0.025184095 -0.0047304854 0.016694818 0.03768668 0.036604967 0.006228339 -0.0137534365 0.0254316 0.032771196 0.015538003 0.007065892 -0.042172886 -0.040271662 -0.00050822645 -0.036031436 0.004948426 -0.042033076 -0.014242876 -0.04419459 -0.047832157 0.04714426 -0.04417914 -0.03511851 -0.008608807 0.046496246 0.016744737 -0.032502342 -0.0067780986 -0.009742748 0.02737869 -0.011829592 0.011359535 -0.048772406 0.021200668 -0.049735762 0.013173487 0.02501819 0.0005021803 0.038353357 -0.028772641 -0.036050178 -0.024651516 0.0014457218 -0.048529424 -0.046185184 0.0011414886 -0.028256906 0.0069192424 0.045413706 0.0076697953 0.005246319 0.018058848 -0.0438579 0.0079700835 0.0008090846 0.031267393 0.014474038 -0.038290597 0.03373337 -0.026406074 -0.021006286 -0.0081656575 -0.0032108203 0.0055236444 0.0061916932 0.03399876 -0.015269339 -0.030071318 -0.03380616 0.02999698 0.043226767 -0.016789664 0.036460448 0.0048129447 -0.02954495 0.047485996 0.021016333 0.047132555 0.039589588 0.044050965 0.0077736154 -0.049942043 0.033498313 -0.022346878 -0.028490186 0.009716414 0.0057529807 0.032254208 0.009695552 0.004093956 0.014801908 0.026775751 0.017151546 0.048935045 -0.022467066 -0.011756014 0.046826784 0.041265342 0.04683781
pre -0.04695759 -0.039559282 -0.048846114 -0.005415488 0.030583266 -0.009916626 0.03623228 -0.007886935 -0.015404414 -0.03460715 0.0444553 0.008782506 0.021845642 -0.04034834 -0.018771816 -0.034492694 0.0013137572 -0.021026433 0.0041639805 0.022168588 -0.03517709 -0.0031997077 -0.03978473 0.021465924 -0.0063805804 0.008613311 -0.037320398 0.023393128 0.029183913 0.0003893152 0.030096743 -0.047881868 0.024800327 0.047453586 -0.001039207 0.02068479 0.022466946 -0.028431928 0.023185436 0.04331315 -0.01740712 -0.035160877 -0.04898088 -0.018624712 -0.022975815 0.022465196 -0.02367928 0.026537959 0.023036432 0.017699268 -0.027793098 0.022107814 -0.011450745 -0.008819126 -0.0031532422 -0.029942406 -0.023976756 -0.048718538 -0.013543345 0.0022358075 -0.009296048 -0.046179023 -0.018030107 -0.013976108 0.002864074 0.003311921 0.041725222 0.02621634 -0.0017208084 -0.032001555 0.022184286 -0.022608792 -0.02058202 0.035529245 0.032296453 0.043793295 -0.04529934 0.004889883 0.016395692 -0.031697713 -0.030501187 -0.016643964 0.02159563 0.0038851127 0.0022348538 0.026454661 -0.03957081 -0.003618218 0.044050757 -0.04482622 -0.0008926615 -0.03887389 -0.021876598 -0.044213988 -0.0006425269 0.04180217 0.045288112 0.01805767 0.046940174 0.026262369
symptomatic -0.04524511 0.008523297 0.040338878 0.04495218 0.0050059333 -0.022197617 -0.031550337 0.021374214 0.044279363 -0.019592179 -0.03522837 -0.002203308 0.045796607 -0.016136192 -0.0057855025 0.027829278 -0.030877663 0.018092502 0.048184816 -0.019535875 -0.006407596 0.0488788 0.044522736 0.011287499 0.008632995 -0.03333261 0.046577636 0.0046338923 0.006457567 -0.025719179 -0.0065915473 -0.035354055 0.008104004 -0.01210741 0.0368228 -0.04096315 0.032813404 0.020203758 -0.021724164 0.042440627 -0.04379536 0.02049395 0.048709597 0.010024596 0.008791231 -0.04619452 0.010642864 0.048051838 0.029186856 0.034591805 0.039766695 0.0053467527 -0.04467503 -0.039732873 0.008517943 -0.023860132 0.023681436 -0.038725793 0.032359947 0.01729608 -0.03623382 -0.047333803 0.01181493 -0.042290665 -0.028063906 -0.03648504 0.015530948 -0.011174608 0.024580214 -0.0445578 -0.008182872 0.035932872 0.031531777 0.012893651 0.0044865385 0.02518269 0.00244366 0.034913752 -0.0075041763 -0.028240288 0.03290266 0.01239394 -0.023888266 -0.016984046 -0.007862687 0.0076900944 -0.00057147816 -0.023962772 0.00520166 -0.011142552 0.026098464 0.020944286 -0.0055769086 -0.00984814 0.014033269 0.015067007 0.03797025 -0.010185789 -0.046411287 0.04581697
–transmission 0.046966244 0.037747312 0.046118584 -0.038316857 -0.024311423 0.009964429 0.010549746 -0.04240818 -0.01391549 -0.017011605 -0.021837616 -0.026646448 0.036086176 0.040710006 -0.0465853 0.028471079 0.042538036 0.02373698 -0.0050180443 0.031011406 -0.029592706 -0.013648581 0.039083984 -0.025197804 0.044815864 0.016050342 0.038406227 -0.011384688 0.04633334 -0.03316021 0.019234601 -0.03359046 -0.04029938 0.0036628246 0.02644262 0.0004015565 -0.018725812 0.010732792 0.0055218115 0.042713273 0.009938657 -0.02713542 0.034153488 -0.007817853 -0.009886168 0.035157707 -0.029712547 0.025005165 -0.040646374 -0.046165075 -0.028160656 0.04429606 0.0336856 -0.008868732 0.014994416 0.041580904 0.03977621 -0.011162244 -0.0018131733 0.017655876 0.009398211 -0.015573073 0.012403928 0.029229712 -0.0053225383 0.02770928 -0.04809004 -0.03280802 0.012105454 0.005600713 0.035225723 -0.0041594394 -0.02156259 0.014933359 -0.042391907 -0.041116215 0.013090897 0.026384842 -0.041424192 -0.004872311 -0.031448983 -0.011606514 -0.023858726 0.028366689 0.048831593 -0.0039758086 0.022605706 -0.032805942 -0.020931697 0.049116854 0.001361452 -0.0016087517 -0.03456358 -0.019438077 0.012085043 -0.01555239 -0.04235679 -0.045609355 0.011743713 0.012392223
before -0.0035916194 0.031676996 0.04273588 -0.005564593 -0.029517246 -0.014629029 -0.037931465 -0.02775519 0.03068206 -0.035227023 0.023500178 -0.011228561 -0.026897669 0.0156569 -0.027935863 0.045314875 0.005616702 0.048577737 -0.0135059245 0.002359867 -0.03611932 -0.022340942 -0.022803772 -0.038317263 0.027784232 0.042296235 0.049204934 -0.047289133 -0.018758703 0.030175712 0.049529027 -0.038049888 -0.033181705 -0.037885748 0.026426282 0.026180435 -0.044735145 0.0408823 -0.016802896 0.02506442 -0.04263964 0.020001594 0.04805999 -0.04610641 -0.018882727 -0.008575141 0.01233523 0.029751863 0.026929047 0.0044671893 -0.0048619285 -0.0377162 -0.028097296 -0.044395294 0.024263944 -0.0059716105 -0.042583466 0.031361166 -0.0018140785 -0.011478342 0.028677512 0.049248125 -0.012386344 0.0036629215 0.049173784 -0.011161625 0.034439888 0.017340545 -0.012387097 0.045157406 -0.012800764 -0.0080607645 0.0436286 -0.037806857 -0.01820166 0.016533043 -0.026423777 0.00030100346 -0.031722546 -0.020250022 0.018660937 -0.04716724 0.023813907 0.004160393 0.03711618 -0.019858276 -0.031696726 -0.0011036992 0.015725497 -0.0015939586 0.004179191 0.016811553 0.030045275 0.0114274025 0.0142775215 0.04783458 0.022809748 -0.04952818 -0.03159516 -0.04971335
contrast -0.0053429604 -0.04201559 -0.039030336 -0.009463381 0.010049868 -0.024742497 0.017917696 0.04738066 -0.0026515834 0.02301455 0.038328122 -0.0046779625 0.017824437 -0.041657127 -0.032102406 -0.012707986 -0.01099373 0.008654665 -0.041979242 -0.028805232 -0.028061463 -0.036976136 -0.025902761 0.036082637 0.02511103 0.012878049 -0.030843675 -0.0017365441 0.0104342215 -0.00124868 -0.044772554 -0.031017387 0.030188229 -0.0066065677 0.01766548 0.04450384 0.022951517 -0.03407248 0.030182574 0.0026503578 0.0277997 -0.047951806 0.047780517 -0.033757687 0.00575123 -0.03670268 0.0073543303 -0.034370184 -0.04036509 -0.016768228 0.0027766228 -0.025925362 -0.043111503 -0.036023546 0.032827977 0.009512473 -0.039889205 -0.03473232 -0.04637548 -0.019536508 -0.015997995 0.028660942 -0.026412701 0.0259117 0.038542602 -0.034073234 0.035815503 0.002824735 0.018478278 -0.01469294 0.043260124 0.040065516 -0.011209764 -0.009995617 0.02599502 -0.039173402 0.0060572997 0.007458411 -0.04936364 0.040159594 0.0059856176 -0.019318772 0.0028225295 0.0486666 -0.01578667 0.037490163 -0.024812425 -0.044898536 -0.020202685 -0.0054295547 0.030497435 -0.037898887 -0.0014436953 0.007770084 0.041986655 0.022098128 0.03900883 -0.039315164 -0.02334696 0.0022045001
we 0.033276323 -0.026137507 0.029651534 0.033301067 0.04771297 0.029351462 0.0022285804 0.030926477 0.025709417 -0.023034394 0.042889107 -0.025397612 0.004179023 -0.02992264 -0.042533923 -0.020986795 -0.03587278 0.0441471 -0.031868793 -0.022074461 0.0020359159 -0.007029891 -9.588152e-05 0.04126333 -0.048653424 0.027244125 0.010248937 -0.016843937 0.042608205 -0.019154215 0.02864987 0.018813256 -0.046272982 -0.01599598 -0.015073799 -0.009844314 -0.021771884 0.042824913 0.03142551 -0.03264799 -0.0035103671 -0.023817588 0.0021064058 -0.015710413 0.036383558 -0.02801367 0.020540979 0.02997737 -0.0027375221 0.004433833 0.0015890598 -0.021365607 0.0021169782 0.007854022 0.0495237 0.0012749434 -0.039478622 -0.018359136 0.0204744 -0.00032990053 -0.02841252 0.03809749 -0.009739172 -0.027071703 0.024700526 0.002310872 0.032482315 -0.03644544 0.031212483 0.0037561283 0.0070950016 0.036329594 0.0034838319 0.031698253 0.034738544 -0.04230658 0.029364537 0.04858512 -0.00962162 0.013210062 0.03803209 -0.049119283 -0.014759015 -0.00064673275 -0.002485264 -0.042631496 0.009404361 0.043712724 -0.011052884 0.008810341 -0.014229499 -0.005856205 0.021464955 -0.036180485 -0.03993212 0.03728957 0.042264912 -0.035326183 -0.029493583 0.004993938
learning 0.019053724 0.029231098 -0.00836153 -0.009822261 -0.049736857 -0.04172392 -0.043333303 0.03825761 -0.021376003 0.009753656 -0.036283135 0.029609326 0.033157352 -0.029698897 -0.012458932 -0.036361825 -0.011730205 -0.01651721 0.025916826 -0.020734524 -0.0021289364 0.00680802 0.01933502 -0.01757574 0.012269866 -0.031943284 -0.0025566705 0.036781695 -0.027530372 0.0021121725 0.00782926 0.03253443 -0.0037301406 0.045245398 -0.02837137 0.04434916 -0.040793836 -0.023855532 -0.0026645288 -0.035527814 0.035153214 -0.0021704324 -0.01654905 -0.022997916 0.01232468 -0.03076979 -0.030210912 -0.02906884 0.0022728667 0.027059387 0.04077896 0.049238745 0.033423867 -0.015438665 0.025915 -0.0016657822 -0.036254264 -0.03557079 0.028902438 -0.0021714456 0.01617917 -0.047840893 -0.015834939 -0.029939998 -0.029173542 0.026025664 -0.03784709 -0.0448558 -0.010454714 -0.022015406 -0.018036019 -0.012229659 0.017068062 0.035180096 0.020151924 -0.007014714 -0.007045161 -0.022241497 0.04688145 0.0002267845 0.029942084 0.0064737424 -0.017167188 0.046946112 -0.018230367 0.011884175 0.03882811 -0.015989352 -0.008310258 -0.016353656 -0.010920249 -0.040818106 -0.04608568 0.01811662 0.025188256 -0.020027459 -0.034646712 0.047754217 0.008538283 -0.014156617
there -0.04285152 0.038898658 -0.028899467 -0.0044449084 0.031669285 -0.022088338 -0.03247322 0.021110307 0.04200227 -0.025052262 0.03873973 -0.03822557 -0.03256353 -0.035907485 -0.0011068694 0.02763306 -0.028822457 -0.0479769 0.021833729 -0.009632826 -0.049257077 -0.02978139 -0.047886886 0.02196977 0.0018577687 0.009389542 0.04911426 -0.047825336 0.0051713213 -0.040270567 0.030948903 0.027950358 -0.02014854 0.00017194822 -0.006723892 0.041605238 0.032328907 0.027541172 -0.049005546 0.03629564 0.008208811 0.012437582 0.0072031394 -0.012246132 -0.01913774 0.035147097 0.008335076 0.026840005 -0.01596428 -0.033696234 -0.0432415 0.02807479 0.0030517355 -0.049960624 0.0065195784 -0.0037837736 -0.047305357 -0.0072054975 -0.048936654 0.008523129 -0.011118066 -0.010199904 0.022489991 0.018163968 0.035670806 -0.008369815 0.011793114 0.0067882054 0.007864654 -0.0070259348 -0.0025599375 -0.014445744 -0.03910142 0.034410086 0.006817557 -0.0018430129 -0.0017292611 -0.03772073 -0.013429236 0.027198944 0.030163538 -0.034034956 -0.027038908 -0.04875162 0.009266067 -0.04443984 0.04496639 -0.0017169006 -0.031720925 0.0066695437 0.03110898 0.025263738 0.03343675 0.016903374 0.03551701 -0.02723645 0.032009315 -0.035426974 0.038307693 0.0036102422
people -0.017982759 0.0061566345 -0.04383252 -0.008948971 0.0012292489 0.004697513 -0.006028522 0.013521146 0.0060578585 0.02349383 0.0123260245 0.041385535 -0.0010601766 -0.009835422 -0.038862895 0.013427284 0.031909082 -0.041369416 -0.0067186244 0.040689792 -0.04411223 0.045181576 -0.0017477162 -0.03182868 0.008525766 -0.035355054 -0.04098885 0.035470996 0.048324537 0.032576922 0.04390197 0.023477506 -0.016571365 -0.0030714162 -0.0277686 0.046009053 -0.019580876 0.045908365 -0.0055897348 -0.0068727136 -0.0039800033 0.049557995 0.03628503 0.022699226 0.033706997 0.045311723 -0.014983464 0.009357382 -0.0036414154 -0.02724333 -0.019094074 -0.04664209 0.012283314 -0.04182496 -0.022528231 0.04957949 -0.046334174 0.008226942 0.004810892 0.025181819 -0.017896391 -0.022051632 -0.047482062 -0.024611307 0.027849603 0.039299835 0.041134063 -0.030259276 -0.027105702 -0.03500657 -0.027007926 -0.0017594695 -0.034264673 -0.013624929 -0.0045387372 0.043439005 -0.044711005 0.003427051 -0.034986377 -0.011632372 -0.013778985 0.013463344 0.020292807 -0.00076593086 -0.011211216 0.0097457655 0.00066936016 0.015741918 0.03890607 -0.020541131 -0.010118008 0.020940173 -0.021192038 -0.02701719 0.04732069 -0.011179365 -0.009227466 0.01916634 0.008456729 0.023906935
who 0.01784623 0.0048615225 0.003735222 -0.032136966 -0.02433796 0.021539059 -0.04687605 0.012215219 -0.028845811 0.017824624 -0.0327438 0.002728723 0.009410761 -0.015660107 -0.018977214 0.03404179 -0.047954954 -0.029032027 0.044172395 -0.015786529 -0.039368488 -0.008237444 -0.04287213 0.004283022 0.0077248104 -0.0029533394 -0.0065959916 -0.027576005 -0.02027694 -0.044798076 0.0038895607 0.011569582 0.03051095 -0.0025647767 0.0034640655 0.03547355 0.011290766 -0.0209522 -0.04148834 0.041967038 0.01597165 0.013197627 0.0013204105 0.0115352385 0.005373396 -0.03599914 0.010061823 0.004697453 -0.026437689 0.0010752305 -0.028692795 0.010511816 -0.021467734 -0.023212517 0.03449047 -0.026487684 0.028324697 -0.047095597 0.0079251155 -0.04781976 -0.023130823 -0.027031267 0.031853605 -0.016703464 -0.046937335 0.03832866 0.020096306 -0.018741451 0.042679224 0.034438465 -0.025207175 0.011376966 -0.0054774657 -0.0023203976 -0.04320214 0.033900175 0.040725913 -0.036836494 0.007841576 -0.049628377 -0.019601202 0.025741149 0.01242844 -0.0020056143 0.0042159073 0.016709354 -0.031428266 0.046953846 -0.014333498 0.04940157 -0.009645663 0.0029240362 0.003974773 0.0034289248 -0.038664985 0.018852089 0.022008542 -0.03390024 -0.037831046 0.03707159
shed 0.019143332 -0.026252473 -0.004732441 -0.028472973 0.020775389 -0.040069282 0.040642012 0.028792169 0.03572825 -0.011526823 0.029020857 -0.039936256 -0.012198556 -0.02639134 0.021418426 0.04341377 0.015475038 0.048412886 -0.021823455 0.043577705 0.002602864 -0.04524077 -0.011764407 -0.02446319 -0.013617516 -0.04859053 0.039001886 -0.032998182 0.018683162 0.04595237 -0.030563844 0.048021976 -0.0470608 0.010240875 0.00042489916 0.026404265 0.039673362 -0.03846555 0.009304117 -0.018310092 0.03797919 0.010571528 0.016236212 0.033576954 0.04974388 -0.034613512 -0.046061445 0.022050332 -0.041615795 0.04885814 0.008892167 0.04606021 -0.045022167 0.007028103 0.04170985 0.044255007 -0.047123205 -0.026608145 -0.029054606 0.031691205 -0.0043674335 0.031155255 0.04387344 -0.024167765 -0.009079456 -0.02937826 -0.029821992 0.031177249 0.006783057 0.042664435 0.019042853 0.03140321 0.02472872 0.038804185 0.0072190985 0.00925944 0.034826625 0.012411237 0.023777436 -0.009014677 -0.028596317 0.04271208 0.02318449 -0.014456309 -0.000988923 0.04444125 -0.028085291 -0.018808438 -0.03160696 0.020816099 -0.0026990063 -0.024662375 -0.03976675 -0.0019665137 0.023381684 -0.0067675225 0.039542843 0.00027667359 0.014098335 0.0033538453
24 -0.011137366 -0.03645122 0.029912222 0.01938926 0.028682444 -0.018561661 -0.02077414 0.03066099 6.072223e-07 0.01003927 6.331131e-05 0.009846009 0.01581018 -0.03232155 0.0133441575 -0.0153493285 0.026065696 0.037655916 -0.038213134 -0.004168749 -0.040087473 -0.02411133 -0.04273155 -0.037815295 0.03272203 -0.011221301 0.040219102 0.015000809 0.0110072605 0.0028183348 0.008332312 -0.0073592886 -0.007444836 0.022220645 -0.007738434 0.036920916 0.018060613 -0.032457985 -0.044649184 0.0074034818 -0.03660071 0.027062427 -0.020945324 0.03136387 -0.004481055 -0.03709676 0.022035848 -0.04659144 0.03384943 -0.010248434 0.046526384 0.016736973 -0.010810591 -0.026852263 -0.0287444 0.04207233 0.037482116 -0.021563007 -0.018552147 -0.024268592 0.029283676 0.00017029047 -0.042339493 0.002406679 0.01691221 -0.04519552 -0.041183103 0.048785176 0.03695179 -0.005874239 0.002980519 0.040364053 0.04712716 0.041048255 0.0043403134 -0.01268699 0.040155385 0.043809067 0.012041628 -0.043053757 -0.017423641 -0.007692419 0.041237663 0.033880923 -0.008012354 0.019804362 0.044503067 -0.0031983368 -0.031860936 -0.03619907 -0.033771895 0.02552173 -0.005590044 -0.006064333 -0.037780486 0.031086054 -0.04000908 -0.03624475 0.037539113 0.0072943084
48 -0.034464635 0.03548311 -0.030567527 -0.0003247261 0.043988023 -0.034132637 0.03224435 0.036745194 -0.049275257 0.043537702 0.04658765 0.047053386 -0.014293075 0.044004787 -0.009439327 0.038419638 0.012849484 0.037585054 0.019860748 0.04089414 -0.014759503 -0.023006523 -0.0052638166 -0.009213708 0.018621158 0.014931742 0.032015633 -0.044322003 0.003322877 0.042374376 0.019602004 0.039419044 0.029437114 -0.017560888 0.0045389906 0.0390999 -0.035986114 -0.025482202 -0.036660217 0.03465532 0.017289866 -0.020703102 -0.04346749 -0.016289972 0.0019122735 0.014813293 0.03475641 -0.03277488 -0.0016454943 0.046202842 -0.007811118 0.047606375 0.023337696 0.04056901 0.0028205402 -0.030947208 -0.002152957 0.019409213 0.009995151 -0.0039459355 -0.04486946 -0.024782551 -0.039563954 -0.024937678 -0.01823131 -0.028632212 -0.0059494004 -0.042105664 -0.0033774003 -0.013626516 -0.04891601 -0.033805147 -0.02464279 -0.027012467 -0.031702626 0.0120902285 -0.010143887 -0.0041525476 0.041174117 -0.023871971 -0.040477872 -0.004917491 -0.034187518 -0.004494272 -0.037748434 0.029739153 -0.02031876 -0.04766197 -0.0449752 0.025936592 -0.029702235 -0.040766515 0.018265296 0.020532895 0.028618466 0.028843377 -0.04635122 -0.015029121 0.03762318 -0.02193668
hours 0.007909514 0.0019992217 -0.02005042 0.036021244 -0.039324857 -0.004491128 0.00088514015 -0.025218809 0.04320014 -0.03111856 0.027404252 -0.03519274 -0.0035602823 -0.0024096593 0.04139277 -0.002044417 -0.019746577 -0.031246543 0.04043779 -0.04420079 -0.030012239 -0.02941817 -0.016118526 -0.013557315 0.009113871 0.0018787012 0.0046562664 0.027839277 0.041197505 0.020735946 -0.020508945 0.04353379 0.04761466 -0.0066617355 -0.008758329 0.03611468 -0.03359469 -0.022904182 -0.02287159 -0.032569088 0.03868169 -0.013676584 -0.02319765 0.020668093 -0.0013512969 -0.029596377 -0.04054903 0.03512648 -0.03497834 0.00058081 -0.0055966377 0.047064964 -0.01809249 -0.043199826 -0.0035332441 0.017408278 0.022353444 -0.037357844 0.046998505 0.031002726 0.012777869 -0.04751518 -0.020125067 -0.014877297 -0.020264363 -0.042715896 0.046937395 0.041261267 0.02095605 -0.022663368 -0.030311156 0.028003503 -0.039097607 -0.01817727 0.035310898 0.022279058 0.033609618 0.0462226 0.008304916 -0.04819838 -0.0030053481 -0.034363784 0.0059183463 0.0435925 -0.00042215735 -0.011015762 0.0280012 -0.04989114 0.041767802 0.033291433 -0.019762743 0.045959305 -0.030308772 0.010070682 -0.022602905 -0.033436634 0.04376285 -0.0013099201 -0.044200517 0.046332207
prior -0.036542844 -0.018151093 0.017627072 0.042192508 -0.02891028 0.014831517 0.014785852 0.047348384 -0.02627535 -0.028599286 -0.03372691 0.025796305 0.0021448247 0.034445155 0.042141233 -0.019684112 0.009982049 -0.028848076 0.03550822 0.020438883 -0.0070987567 -0.0017390624 -0.044000674 0.03666563 -0.0038533695 0.03727592 0.015068937 -0.013682164 0.040591266 0.042476665 0.02153838 -0.012352239 -0.017970264 -0.04953575 -0.012643196 0.014300201 0.0047402754 0.012663964 0.020617831 0.008671261 -0.04490603 0.026913557 -0.022749174 -0.032349825 -0.032465003 -0.014814578 0.02612469 0.029915962 0.049032215 -0.027164638 0.0484044 -0.049202718 0.033481184 -0.029192233 -0.047366906 0.049410354 -0.043955814 0.030316856 0.04131672 -0.017645456 -0.029666746 -0.018528126 -0.032710746 0.025447179 -0.04500414 -0.0012870431 0.0034449473 -0.032503106 0.028200235 0.044786584 -0.0354334 -0.022815859 -0.023859132 0.04354581 0.015353847 -0.03518076 -0.040185213 -0.035328053 0.037437487 0.042945016 -0.015888762 0.010789059 0.029276911 0.01920924 -0.03434875 -0.04480871 -0.03890147 0.011868071 0.013584826 -0.013602473 -0.04652096 0.0013374574 0.016990233 0.0478989 0.036546994 -0.047265448 0.010655902 -0.042199373 0.047212932 0.00020036846
symptom 0.015364122 0.029914115 -0.017136574 -0.04009931 0.042929117 0.014832091 0.043797005 -0.009800114 0.043963183 0.0007491335 0.017360654 -0.041285563 -0.034174107 0.004405163 0.041368987 -0.031357072 0.032285992 0.0010618791 -0.021119202 0.011791766 -0.040549982 0.0040986426 0.026832175 0.015534971 -0.0027425513 -0.014692556 -0.045958042 0.04133549 -0.03715185 0.009245157 -0.009923138 -0.049547877 -0.007594835 0.039821517 0.0023434386 -0.046240237 -0.008048512 -0.047855522 0.01140213 -0.016483974 -0.017722882 0.049295995 -0.019075036 0.042709935 0.0010734797 0.04017779 0.021345709 0.023266364 0.027561758 0.040069792 -0.022659862 -0.010335099 0.019720677 0.0056889877 0.047437813 0.045970235 -0.00065529346 -0.03847172 -0.044283915 -0.029801523 -0.016088523 0.024312604 -0.0075542443 -0.000998687 0.031118382 0.0294688 0.024872769 0.003327597 0.039308574 -0.045201458 -0.047954824 0.025312152 -0.028493404 -0.04723158 -0.006784737 -0.0012186877 -0.034687124 0.019366134 -0.038945936 -0.02157141 0.033611607 -0.023517108 -0.0047806613 0.018815164 0.028232444 -0.019705594 -0.030897165 0.042527746 0.037793327 0.020139266 0.023269143 -0.007564284 0.024166074 0.04361253 0.03872801 -0.044777323 0.014707316 0.006974876 -0.038958393 -0.040611375
onset 0.0012841448 -0.016395189 0.04659066 -0.035574637 -0.018773962 -0.035572708 0.01362076 -0.02407211 0.029565085 0.03648371 -0.047282886 0.030628446 0.011803459 0.028547894 -0.023318661 -0.023709143 0.031668413 0.04289906 -0.044892706 0.02765802 0.03933194 0.03799163 -0.023970628 0.0022743233 0.040810037 0.034503866 -0.03883878 0.030276526 0.03285301 -0.038023543 -0.008727752 0.009354554 -0.02260903 -0.027369058 -0.0007314682 -0.015603185 -0.016280435 0.022217859 0.010963369 -0.0008876547 0.017082516 -0.017288078 -0.0062506087 0.028020922 0.0003986135 0.015092839 0.004010629 -0.009872604 -0.005592119 0.0032943971 0.014208604 0.036846902 0.030777846 -0.0399984 0.016142573 0.042907063 -0.04423207 0.04623503 0.015769769 0.029241387 -0.012324847 0.0016934983 -0.042850602 -0.008677863 0.037064385 0.025976215 -0.010929871 -0.034637354 0.008950092 -0.030182576 0.0059464574 -0.035650205 0.04300839 -0.036974944 0.0063217506 0.006470777 0.00484265 -0.013135053 0.020801391 -0.0259987 0.0025771745 -0.04241803 -0.0030635484 0.037896503 0.02309135 0.029836643 0.029603515 -0.048173226 -0.0461709 -0.012468267 -0.016773462 0.024833027 -0.03549973 -0.0068568364 0.0134155415 0.013415579 -0.024121463 -0.04327487 -0.0063406937 0.018152285
at 0.017821852 -0.014344513 -0.0026541725 0.003085088 0.0125330575 0.047821905 -0.017426528 -0.01657661 0.020370271 -0.033247806 0.034871463 -0.0073367357 -0.04262221 -0.039179992 -0.020788407 0.011697698 0.037533846 -0.01462872 0.012233805 0.020885076 -0.0012576096 0.047725227 0.03777558 0.0037110448 -0.03541554 -0.0051020496 -0.047528636 0.04691415 -0.023570871 -0.021839678 0.036077406 0.033484552 0.019793127 -0.04359163 0.030026529 0.0196484 0.047227953 0.009176828 -0.02998501 0.010227859 -0.021276046 0.012864117 0.031291556 -0.040018223 -0.027487684 0.010795571 -0.024468375 0.0026081912 0.032613922 0.006347131 0.007249426 0.047906462 0.025237326 0.033383194 -0.008631825 -0.0036810637 -0.03816079 -0.017706275 0.023302052 0.04492042 -0.038491737 -0.018122744 0.009277664 0.004344344 -0.010322191 0.01696689 -0.008587621 0.028604362 0.011627544 0.026096497 0.0018113628 0.0341605 0.047648285 -0.007457804 -0.023623407 -0.0010208488 -0.002173029 0.024584506 0.044756684 0.02493335 -0.013593722 -0.034980915 0.02875023 -0.023844374 -0.027532328 0.02177265 0.010299813 -0.012025751 0.0030015707 -0.008546103 -0.0015239716 -0.019918336 0.041366998 -0.03725363 0.041082237 -0.0015427954 -0.008710504 -0.049983513 0.04076923 -0.024108613
present 0.04928514 -0.015263595 0.031669144 0.0327467 0.02277026 0.033479165 -0.049159076 0.042451408 0.008921195 0.0025265217 -0.036904134 0.02081101 -0.006181348 0.0005924329 0.03988303 0.024435733 0.035952915 0.008248758 -0.043108046 -0.03308101 0.03216486 0.018214013 -0.048105847 -0.0322389 0.04035015 -0.022446454 -0.001401104 -0.019741429 0.029524412 0.008109938 -0.0056957826 0.049019102 0.015398052 -0.009715665 0.022237804 -0.020801092 0.01649816 0.04309422 -0.031423412 0.005839549 0.027631346 -0.04224546 -0.03423797 -0.0050831065 0.04642446 -0.045248806 0.016420987 -0.008650087 -0.008848678 -0.030685162 0.03818984 -0.008183993 -0.028970946 -0.018637646 -0.029864073 -0.034300078 -0.038294744 -0.004953839 0.033643607 0.0260689 -0.04329903 0.04823483 0.02449714 -0.029709829 -0.04214549 0.04503106 0.011792123 -0.0059173703 0.014473055 -0.011144627 -0.020499397 -0.043161105 -0.038268365 -0.020276535 -0.023833467 -0.030785693 -0.034297608 -0.03702544 -0.049276937 -0.048173048 0.0012953393 0.021069232 0.030724216 -0.002278924 -0.04904145 -0.010818504 -0.0046453364 0.048974637 0.006389905 0.0017489307 -0.007779885 -0.038615383 -0.0057466626 0.02388953 -0.008083094 -0.022307014 0.010723673 0.03681271 -0.045099378 0.024280991
does 0.0043426044 -0.013726354 -0.039020933 0.0119670145 0.049596477 -0.039184965 -0.0046536326 -0.015427031 -0.012812771 0.015753891 -0.014075041 0.02292576 0.03988358 0.02006365 0.025265742 -0.0017790794 -0.006620217 0.0035835877 0.012634624 -0.042424727 -0.034181952 0.032640126 0.037445914 -0.015234102 -0.037856173 -0.04985341 0.016352724 -0.034489382 -0.028488612 0.023660112 -0.010714065 -0.01365279 0.00032495335 -0.04178195 0.006915223 7.938594e-06 0.033845115 0.03372136 -0.033143222 0.0032739043 0.022281263 0.0046624765 -0.03762617 -0.049429107 0.0050329342 0.0012164116 -0.0021663792 0.0014418252 0.0027054176 -0.014687289 0.017057363 0.014933851 0.004316438 0.019276526 0.016783897 0.049907517 0.007703364 -0.042949487 0.024619345 -0.017490555 -0.0043740273 0.048646573 0.008642495 0.026197027 0.025255214 -0.012765549 -0.049005687 0.04251362 0.04358167 -0.0030076876 -0.02359519 -0.027002966 -0.018422745 -0.029471362 -0.04414767 0.034750585 0.009788133 0.017899882 0.0151838325 0.016805496 -0.04006686 -0.01857983 0.004303731 0.042399142 -0.029019117 -0.0035457388 0.010767508 0.026805405 -0.044092964 -0.022085631 0.0072671995 0.033198368 0.030746344 0.031419467 0.04940292 0.048557077 0.018713068 0.03014164 0.005166553 0.001251936
